100
30
0.1
0.677792706376776,-0.409942653686713,-0.590650668177125,0.789507982223066,-0.756532902715976,-0.854176086305723,-0.71657019933526,0.692531603245312,0.582279193951878,-0.318929530363031,0.383351385306265,0.508754600542018,-0.170914113135503,-0.462774786848004,0.709210129319322,-0.783294589157819,0.261306290170786,-0.396071043515611,-0.646492320879592,0.254285458128101,0.119746401496113,-0.575473950046801,0.75814095128241,-0.568951979078796,-0.570175853357732,-0.206644761006648,0.400006510969254,0.95053251085362,-0.558122982065251,-0.753722565133927
-0.57832656687979,0.39807928698048,-0.284072126859833,0.641068535689762,0.807846359819102,-0.54568989646886,-0.906916320280599,-0.124348667973815,0.990931826639423,-0.493584435197331,-0.781768654371504,0.143467636380097,-0.44717391833997,0.454095305620737,0.554698079617088,0.114504388121192,-0.365553877020978,-0.367816086564127,0.581833031765107,0.187892537185872,0.619382710018839,0.640026995744569,-0.919118873737342,-0.963605690730552,0.562703917530693,0.271403003144731,0.819085265425539,0.541838619644679,0.0727485628206044,-0.655540305029387
0.837626791483549,0.223501130576945,0.0216458090681797,-0.932890486872238,-0.00497079035498704,-0.17839396520443,-0.582958346969894,0.949251931137057,0.449324861843756,0.0931377732628667,-0.949166887416116,0.260247123083215,-0.929808876444497,-0.791078416533339,0.952376873210248,0.830781639474808,0.182780578351943,-0.371207937305424,-0.570652319849773,0.272028140384717,-0.975309910241193,-0.222235821756644,-0.274512590502627,-0.580098825311334,-0.27160913742688,0.88299671368813,0.130922614192089,-0.422132661297048,0.557870371992639,-0.603938890436636
-0.782618328827721,-0.353508686345773,-0.858660509744035,0.280910974964924,0.411204647929969,-0.863965145248903,0.577765546542483,-0.563663610985346,-0.0964622605109877,0.282117225826773,0.857660385713754,0.228412466695724,0.416865624215857,-0.773149969881936,0.981324747196084,0.243394842950345,-0.222286346937663,0.437196200451439,-0.208965191249254,0.449243297543956,0.526800474862941,-0.632116093128974,-0.159578770007742,-0.354810670649079,0.447096827182498,0.252787134262168,0.933779269426027,-0.113576137047995,-0.118106282836807,-0.721698752474831
0.236983360367354,0.876524819934985,0.904591873243727,0.497836446155718,-0.998636298812291,0.822272181428164,-0.779578962260661,0.735679198864698,-0.93805087820536,-0.864500441525365,-0.0373625657695171,0.852250534972293,0.219680054681227,0.279671915471401,0.641520028766952,0.0324901887366968,-0.195703941022839,-0.975329341355399,-0.314473212377389,0.675812273135321,-0.890389831685643,0.690999011365231,-0.857711832904123,0.667784998970006,0.397902236971027,0.725599520711973,0.535070966712698,0.570875292444078,-0.87068692216216,0.719057404305347
0.642911754382268,0.408301626056573,0.489462294378068,0.0166443740095219,0.995792548170217,-0.389918009466454,0.972196047181355,0.699808841431425,-0.156511693800107,0.874476231576165,0.687403807270994,-0.753770019744416,0.924048037232853,0.585393316850715,0.344855278425317,0.415923784214968,0.710089043579106,-0.725074194243678,-0.812933951529178,0.435682049689666,-0.584797672734036,0.917523514440993,-0.0192669057376994,0.261689349665162,-0.230926603652037,0.859007736602336,0.985284189686777,-0.138000740268268,0.607474248673522,-0.572331893989971
0.116414581014036,0.959835188444627,-0.225481447403078,-0.0772863696689189,0.942736192579724,0.180203711232265,0.491424141214892,0.372631026139777,0.448832338419199,0.0699718497088049,-0.463084557774982,0.56634042484981,0.463166879240035,-0.159517823327108,-0.735590053599137,-0.351568309288271,-0.0883852378876812,-0.675934311782911,-0.596740656344565,-0.567058652437785,-0.829916783529295,0.374672775796928,0.0234018215087251,0.710782745718389,-0.44140697524017,-0.172276436897123,-0.712375167623337,0.153942060262869,0.114890127961938,0.21045105308781
-0.0561665524990143,-0.418623105352103,-0.204528788665556,-0.407409324034773,-0.89006972587205,-0.0789500684845029,-0.394171267465768,-0.338832026039638,-0.106688427322865,-0.882152075824399,-0.497065848436703,0.22027196791967,0.17064634113137,-0.458155465991309,-0.40911751306109,-0.380918353507723,-0.966545470974662,-0.747415977412563,0.834525613968505,-0.470300717032655,0.762211622559564,0.441357953213788,-0.383359946954697,0.962875436042843,-0.0647510583814006,0.955118659862838,-0.299262481415301,-0.942132496248061,0.923576669731912,-0.226280052785892
0.80888981083822,0.155717107074203,0.0195776051932841,-0.828527772719286,0.620970357032945,-0.713512680359889,0.711470647580675,0.346152958155681,0.847835996117366,-0.889920091205239,-0.883147913908189,-0.620051095085242,0.520516795814278,-0.116063617689565,0.81427218849504,0.102657909087212,-0.343413459762658,-0.136222334176406,-0.191533955368928,0.900356167880984,-0.548675420483889,-0.206899904276663,-0.253558192985858,0.162249549833243,-0.244066485783116,0.806803502052465,0.744577024013073,-0.401108396892021,-0.102556075482888,0.113778022636556
-0.547560351690073,-0.080583148207787,-0.467724513945973,-0.193581455011657,-0.418597218309807,0.730284955226949,-0.600017973035582,-0.903475045181566,0.334673985529073,-0.188488446729485,-0.416888100754883,0.175434542435889,-0.20885897763486,-0.764708342852401,0.215063990659576,0.587374868610583,0.693285112126397,-0.172175625884987,-0.690230456036623,-0.231959939576667,0.68569502964881,-0.325845710619281,0.788831548666969,0.223256447922092,-0.87065454193887,-0.653558255943264,-0.213747806480968,-0.308895743130192,0.0646696281920511,-0.768115189749801
-0.92867301866816,-0.317548936846456,0.273959296417404,0.347487749228016,-0.998008487745192,-0.422103853627156,-0.688406701985936,0.342708191528315,-0.0457749781411956,-0.493675864065846,-0.74383701372139,-0.69862933070335,-0.163779807818951,-0.575549895677506,0.935035754896251,0.146550780696119,0.538189452857799,-0.631503812797137,-0.417716567133421,-0.379359947228506,0.418542891470037,-0.0872303746115558,0.133329766398915,0.506217268065651,-0.257333390068884,0.869835315211599,-0.882062968743063,-0.203306934425285,-0.925668251666086,-0.437479346728641
-0.904867446937071,0.838806260302107,-0.261246234765857,-0.973589730436723,-0.996807802467052,-0.263906029641584,-0.339804859524502,-0.393432509802949,-0.592239105884097,-0.629491688511098,-0.736652965534782,-0.13475629926415,-0.86607127816699,0.567571345515349,-0.0815090570047075,0.235660863684332,-0.287107209343047,0.174116338218616,0.610608172421627,0.505287146896723,-0.244568247927617,-0.588628388749728,-0.363367116713602,0.123639294469561,0.60020693838606,-0.65696443228841,-0.191895326223176,0.241047959421318,-0.125666262174801,0.864298753377189
0.324816424085207,0.677918346448763,-0.202945284174264,-0.0340812127264595,-0.937041093566008,0.196140381133249,-0.44795738973094,0.298946418473006,0.598514684289002,0.925676017965039,-0.760922948718501,0.731208085888628,0.274664157663781,-0.404434226175972,0.87519709946364,-0.195368284916211,0.0502433968010561,-0.0838744272868496,0.231889632172831,0.912896314595312,0.225104950007566,-0.182097119829663,-0.20619586911341,0.464959380899071,0.209196064252963,-0.513268426765347,0.35082134108563,0.136960368201584,-0.0362128406000384,0.110828314493796
-0.263142251066464,0.6687529821269,-0.877029677795726,-0.557024652863398,0.213440741977394,-0.878350576329208,-0.75760364428051,-0.282199965455662,0.868806678740683,-0.865257699911137,0.75369949161713,-0.00444575632198052,-0.397861492539692,-0.0167105277146727,-0.00771064078794359,0.0966493473838312,-0.0849491754011015,-0.432648388404701,0.910936230752122,-0.450365421106278,-0.593158523362669,0.465097617108886,0.765859479906903,-0.523355288209093,0.203593734280948,-0.230699813566496,-0.385370384615553,0.824696351692405,0.765614235664538,-0.628049681721278
0.878740095476965,0.430503523643363,-0.858139435694618,-0.342415279402591,-0.945884954159094,-0.251548392349644,-0.491031394103091,-0.981994142747481,-0.548070202371138,-0.778171284020958,0.608945935782486,0.925255893694822,0.50871852110546,0.867888101315074,-0.490195880406627,-0.30167776499953,0.471863736152585,-0.946965532352666,0.611662974400289,0.828825588258368,-0.743488692559064,-0.32476036219148,0.72912092214875,0.396215368712421,-0.332024876648572,-0.632099463433074,0.459236070261912,-0.571566261151603,0.38886982546601,0.42670351333297
0.771243605656197,0.39809176484034,0.55554132887886,-0.446871111843209,-0.850066730682769,0.0998700191731892,0.196042502855902,0.431531171981027,0.578695150827381,-0.214404092735799,0.79525000406208,0.561094720643524,0.379620740832584,-0.229364625750745,-0.916178834585556,0.70384593201049,0.102972069337485,-0.644515832720565,0.170657062516854,0.394188841522759,-0.808821326032663,-0.738271390897348,-0.986706661054262,0.544703641694367,0.252376666875731,-0.953889843986318,-0.869809213033788,0.155145187468801,-0.132579844041066,-0.0730269723911895
0.747944788889934,0.912892536219625,0.22144416776553,-0.180717854379079,0.739616775763974,0.869540045908438,0.581336881770444,-0.426767714986004,0.194497613792539,0.383347422528708,-0.587127551244166,0.535579230420095,-0.617880995207411,-0.434314506796335,0.723285209258685,-0.0394237251204549,0.441672841758315,0.462595970119627,0.486609130858727,-0.478759144190121,0.6263641759876,0.624518351454529,0.518696584514667,-0.167992779597637,-0.910939730662359,0.120519768968467,-0.381896419162814,0.185092789672824,-0.770406239559132,0.339585103718371
0.838308245799648,-0.40567310313027,-0.357041533736997,0.768376439701941,-0.887540821864987,-0.0908607938749999,0.297168841258236,0.307610243236464,0.781981895576223,0.176887950476672,-0.541505390564681,-0.648380754351793,-0.0800529844500372,-0.448897521686227,-0.388869186578723,-0.803588077334495,0.200439396873321,0.770991354142777,-0.367235361303778,0.00588345947018065,0.0676844348514847,-0.557323539423441,0.850257644360074,0.751841617632584,-0.314611634851718,-0.440537353717041,-0.959579949248387,0.472447728492528,-0.973016615013134,-0.220797024304418
-0.850768491556295,0.173982465255066,0.950814679242119,0.454033716327527,-0.996943531556494,-0.446983725506339,-0.119146154783269,-0.521626304612321,0.567873393915535,0.113630714413538,-0.840275801643858,-0.236714131774713,-0.438311218022514,-0.771118921121172,0.117850789389504,0.220778160365661,0.146165384513403,-0.330868910686518,0.872911476470954,0.991018988187899,0.0120129394400925,-0.159000710192602,0.44629560198928,0.462002610537225,0.315153278091528,-0.74011500260798,-0.48319217631742,-0.428331548081865,0.556416338103086,-0.570381032102919
-0.589043002384269,0.5890195339867,-0.160929462481723,-0.289551849146165,0.689394263406002,0.538689191238344,-0.581233409969711,0.441887420342251,-0.133952569744528,0.165523334949055,-0.608447143625676,-0.908240854697414,0.683347965443203,-0.514481723082476,0.702822357277769,0.191565890420026,0.02174974280491,-0.200537429750216,0.455951760269679,0.786469129746067,0.992400960061886,0.992500434626127,-0.477842130455115,0.198431216738387,-0.116584804429014,0.576137358125363,0.396640193367675,0.705706355956246,0.955362147630827,-0.62352445983492
0.0651718969760331,-0.0964593212569409,-0.461174423555459,0.0947549404086336,0.103748576298239,0.658801143830084,-0.648722928785124,0.866438710999879,-0.445514053779428,-0.465154140938611,-0.594850863141404,0.937447573029179,-0.349191057192716,0.914107754786549,-0.811946580098917,0.00952949887585341,-0.595299755965965,-0.16956646888031,0.952098895773338,0.0459362347824201,0.0486253737698428,0.509848100836318,0.798114403988288,0.0673930659272677,-0.295659414164563,0.30948467054846,0.997169946319037,-0.169658952937303,0.952137809224491,-0.188360980333928
-0.686166511702429,-0.663046605728123,0.467466274959718,0.680171402022322,-0.560515624266358,0.583814386084589,0.461061099293204,-0.508657722505116,-0.637926501053351,-0.552207594528891,-0.294497312649385,0.746629860134157,0.626007282932292,-0.0732339914297844,0.720637898762076,-0.849322231416275,0.7184134524867,0.980383138163194,-0.66352899170645,-0.061046853224303,0.811094310046683,0.687237910780701,-0.41402131198627,0.987303714261997,-0.654834388594532,-0.168823201753582,-0.790158536187447,-0.939572864183957,-0.102845365695118,-0.457750660114805
0.808099180370615,-0.920339773371974,0.612945364607938,-0.6939799784189,-0.739753905562569,0.395253725999619,-0.407924995481933,0.348448920691595,-0.899852442508495,0.432281657789034,0.573860971058654,0.223026743728214,-0.193993564319794,0.0846235626771223,-0.780420724200281,0.507686245025921,-0.200657861866363,0.255150034676841,0.187434713909139,0.327772088035835,-0.020968825100441,0.496294619280982,0.70336258676991,0.82903465341266,-0.696353131763801,-0.57369953746614,-0.11358860931992,-0.667559381419588,-0.111047696839575,0.996294706126812
0.204725796917791,-0.0385245881222769,-0.42118484686184,-0.778860117205819,-0.870606844253189,-0.749026967095689,0.478140319454549,0.361924911552074,0.673930675570821,-0.0813410007773624,0.900533457240338,0.762670795322708,0.0276346556039688,0.131366569144356,-0.299789061443782,-0.189837040002382,-0.11135793715313,0.0919035315010248,0.844773614706832,0.679849060103227,0.589554894524419,-0.30409488235791,-0.628953643901718,-0.386898092640051,-0.160631658118512,-0.0360567900520082,-0.461020358587159,0.982843796714602,-0.522968437300515,0.778676320695633
-0.753890802969174,-0.140787491174782,-0.160829302464067,-0.673431274329047,-0.956251202130807,-0.0771616702327327,0.2845134703836,0.405756763837187,0.563420171646131,0.226513530698844,-0.196657889148527,0.758680542818587,0.653332939210037,0.19081643186082,0.461551037366293,-0.73770274582212,-0.0886926777142532,-0.920222376436099,0.410398697206005,0.815142513166714,-0.115479051654916,0.70701026344067,-0.358009655660954,-0.359923697710002,0.595226283928019,0.381980335983439,-0.862598005618247,-0.640970975924735,0.864410455275518,0.858784067378745
0.33036052776983,-0.427805551992639,-0.639701159503172,-0.927360289696306,-0.487005444935991,-0.77947644599689,0.293215071453347,-0.0679759667571522,0.673597244393824,-0.506608079889141,-0.754503114965979,-0.707567268846355,-0.235477312111984,-0.656543904755518,-0.841551098898775,-0.897946558845205,0.325004043674564,-0.480491131302198,-0.992838026021066,0.856473406709951,0.907356467054857,0.433212907720922,-0.868602008497623,-0.924541093373923,0.0301073058648536,0.191904444802508,0.230438324264455,0.708100625177892,-0.853523020564356,0.132723086109722
-0.90147585510345,-0.391413355894114,0.337239426252078,0.0546280169182587,-0.14286473446659,-0.783176285113756,0.685434888901857,0.765980294796629,0.811396061354967,-0.0217684996415715,-0.181835630527621,0.919068677313192,-0.977628510434939,-0.543869871433764,-0.846555622223092,-0.700865741679848,-0.32295859666679,-0.898514040698537,0.264454112977001,-0.181306009730932,0.947720258472357,0.903622594617131,0.918219620323842,-0.362932729238147,-0.580532989269371,-0.725644502661025,-0.515666544211873,-0.351488805074007,0.204395049812456,0.276347131131379
-0.922175027393817,0.278225690721639,-0.8127214628331,0.186791351617682,-0.808104143388618,0.108002014974133,0.317805324363432,0.814454154025043,0.67907564047681,-0.894814054432704,0.142484010729233,-0.279910272583324,-0.840598187335114,-0.939736437955748,0.741286647385585,0.579497690116753,-0.141852844106896,0.519617917723776,0.36556314740589,-0.643584026789099,-0.858719661766067,-0.254839348259773,-0.772357517747375,-0.307827659560287,0.556094519587278,-0.163249730674201,-0.520004867352547,-0.58479586596824,0.194981551354277,-0.736023857135337
0.611963135009614,0.554350399204693,0.402589864750667,-0.181245381562619,0.861170692304694,-0.191187616061041,0.0189581937244898,-0.446980538520487,-0.2260870315256,-0.409842601702475,0.596984253077295,0.750398210133611,-0.251090219826945,-0.8007220978852,-0.154198288523684,-0.162332571652873,0.216268496222919,-0.365970211739638,0.787079824966881,-0.965210408887458,0.778699104571109,0.242374153454962,0.665323279642185,-0.189937310847425,-0.97097213006158,0.784838383917156,0.870268411873965,-0.698862309427402,-0.870099588236818,0.857326026939473
-0.77054892190292,0.210997767379041,-0.0558622540234878,-0.0174374948336917,0.225163234036958,-0.986026038409223,0.247920680440925,0.783248985085287,0.714344562829633,0.601827704162257,-0.0595858819128879,-0.752928045463249,0.176028181415064,0.034868925360436,-0.842843661011589,-0.868918695426043,-0.718401182311774,0.569462423943664,0.424375094205316,-0.169848400712874,0.655356762770264,0.395638876313176,-0.399823614116676,-0.335649400640116,-0.0812209318770193,-0.0591001441046131,-0.314628288762005,-0.288301060576132,-0.704417160574541,0.72427594555741
-0.131193878655878,-0.596492174824929,-0.839043559431584,-0.646610693841526,0.221781472313116,0.537236297287623,0.145957265582847,-0.544366250533781,-0.817163084548508,0.63147497811889,-0.738954450813567,0.595461374891671,0.0378855136399556,-0.185491301671365,0.670977594177694,-0.0595385288165596,-0.382205919074922,-0.107157888406496,0.845890699814023,0.576033684227631,-0.203539046088019,0.857243043304069,0.802290001792037,0.00783428131036201,0.290701765236772,-0.531861629119079,0.347871425257936,0.757696048243761,-0.127139312740015,-0.791507649138341
0.699584853695512,0.19426655266167,0.606743203292947,-0.245519544577934,-0.0526626403688745,-0.154875106716005,-0.0659518544869273,0.229716967432628,-0.901398633560817,0.0153400381167139,-0.0305445236296135,0.244561537748464,-0.549651233269671,0.0971572655705537,0.0537139536131703,-0.685825986641378,0.940768660949901,-0.613502019836335,-0.395160100141149,-0.235168809646353,-0.185855135873824,0.897854880382239,0.175558453041855,-0.148547135828318,-0.531618943219827,-0.185639654838312,-0.429462252850394,0.214211206517281,-0.426435534575226,0.852945567971536
0.99505034088858,0.280833310112745,-0.0455749645110103,-0.90719275730997,0.158894164096049,0.857099196807062,-0.540944209108569,-0.344884670034463,-0.928538422066969,-0.52526420519001,-0.696492402672997,-0.548685000067896,0.165520054830946,0.689475167398097,-0.821844205177316,-0.595229514686032,0.701003140630668,-0.284967945555676,0.392453707471701,0.0676776809001702,-0.65824477544904,-0.356414883097827,0.438657754770786,0.189917915123477,-0.915883173195591,0.658806817447211,0.069236509999836,-0.851724855532742,0.383469398777685,0.801936904807546
-0.104363188661804,0.363525349350425,0.846611531379917,-0.156350482793688,0.590225588339486,-0.096285248685761,-0.845218859540866,0.674031074938379,-0.348907132329842,-0.680700752735464,0.475282392220237,0.117419677375546,-0.00257723266378851,0.991631085049189,-0.835226695907873,0.595891066638702,0.128461015936202,0.694809662967366,0.946246370648149,-0.62961249129363,0.426058170118396,-0.32494548397369,-0.985672003582899,0.196324503606336,-0.836871806456182,-0.95072051135391,0.203577060812887,-0.186057664074962,0.77385106113453,0.505241811976415
-0.195399483291153,0.98123403823992,-0.920136202089552,-0.987397358746919,-0.810520342462938,0.0474895066802807,0.863928451139447,0.469754197387842,-0.250859452994009,0.245785050674242,0.857340337642161,0.700715678604653,0.965380209481986,-0.333999661418609,0.964510616829857,0.676633424906355,-0.364321274386868,0.837825636303903,0.0626765345515108,-0.671501835655189,-0.494859480995154,-0.00453246804165308,-0.892950239541452,0.285224987792422,0.436370339913466,-0.277698798700096,-0.142372748415159,-0.0643936475107417,0.279089966453188,0.610185680729423
-0.63186298666143,0.411817570874383,-0.453086836008861,0.87449360446748,0.839047457947883,0.368695284877296,-0.619440449224524,0.974539088073438,0.811216363595434,-0.096815723505251,0.161512639914412,-0.214033861278572,0.501066713361566,-0.0147931831957741,-0.358165533914308,0.167162558607367,0.489302945085477,-0.387946368841429,-0.591821254972285,0.392668440655185,0.664613554097998,0.687656508613218,0.0138752316189348,-0.315766204761232,0.0510231168246935,-0.813299742440367,-0.932184275208127,-0.528386469710798,0.00430002389675943,-0.534954970485976
-0.780551378513012,0.644653166478804,0.856339113719919,-0.839651023894386,0.65354077501853,0.629165276712349,-0.631534366696856,-0.238340503181489,0.451639863407072,-0.431935131285309,0.927606283653344,-0.440906596109693,0.653208757589203,-0.976139191526984,-0.776241536148005,0.710574332489899,-0.435689240431268,-0.317054299319654,0.354084188749122,-0.44347044613374,-0.0876996959968003,-0.0615079296107907,0.269097054036845,0.149490259191715,-0.577746867005595,0.777200777911209,0.261812601826066,-0.992533198554317,0.705283679862173,-0.654070314790155
0.253157943139392,0.461429092782284,0.549090399196879,-0.782450185056054,0.317844253647069,-0.191308904062635,0.816567917268988,0.516117129249553,0.454681901007277,-0.525524918700347,-0.500283593079207,0.883137182278157,0.606012211929081,0.316488672660891,0.450128554110475,0.694952790483345,0.342588380604325,-0.516301463132865,0.537617145822205,-0.757732014058964,0.18728986810301,-0.25081848318261,0.50014714966535,-0.185365364507477,-0.479489532988281,-0.628407250916775,0.426605949842653,0.707416040686619,0.971821478554896,-0.335684426750841
0.7343753295645,0.460741723636511,0.666470235989648,-0.579466583011424,-0.652490148158972,0.39094289922665,-0.474532967188644,0.0610792064392376,0.207653521191167,-0.58522693141607,-0.735262855764135,-0.99282730370426,-0.514921698493381,-0.973602792235838,-0.358018934427769,0.0855201646152512,-0.99615128803819,-0.516142277753047,-0.222121742191781,0.394359870531764,0.593545563329731,-0.916905638723125,0.687963857170178,-0.587918371701575,0.0364814042283601,-0.911330616060333,0.131735805949073,-0.795018524767374,0.682693955340746,0.976094901550605
0.329290730566387,-0.174810254562092,0.373255321464155,-0.217331096165502,0.772384307241246,0.483218167667844,0.427947205224981,0.998387668281043,-0.197209901733887,-0.31674205945653,-0.654677498924861,-0.791453634291633,0.0987062477966334,-0.140627534659872,0.567567891239919,0.814729261125777,-0.68808658779044,-0.184831519231587,-0.477725920955523,-0.311520340531841,-0.197593770547581,0.397979613113208,0.963101447542711,0.72156719757317,0.0739946733573427,-0.9542992282446,-0.593738014620607,-0.436256394459054,-0.0330407186565179,-0.938572027691906
-0.45953783740268,0.185349775098893,0.748926728846937,-0.392268204778558,0.455145376480718,-0.605000759290997,0.256958055895268,-0.902403061232717,0.458053674296501,0.232560002818964,-0.785561435756069,0.857471696966082,0.589666080470041,0.282096346505962,0.921550158374733,0.4510806349344,-0.138467831135945,0.747667066635409,-0.526185813139279,0.723898685408709,-0.438707618712777,0.406276572219225,-0.107291085229856,-0.519701815917949,-0.0215052054363792,0.015203768860178,-0.603031707742732,0.222810995403124,0.993730836544992,-0.452648625454236
-0.487236510723474,0.0211032829345685,-0.870732882931238,0.0182977882299096,-0.352538355324668,-0.787655647745196,0.0118222660440124,0.368389690000745,-0.408326055579039,0.387150820990629,0.597174837066408,-0.742673115684964,0.326707268751556,-0.504222508289023,-0.971580895582019,-0.0425271406036463,-0.286389216448362,0.655478122483696,0.757810473329299,0.36437980428542,0.147573026431526,0.36367162939332,0.665240714170616,0.219416063846748,-0.23664378898062,0.950837701536174,0.518339218347491,-0.92572112936793,0.11458323202775,0.786527070117429
0.00647596502978165,0.977308851656182,-0.811079616570417,0.48348073264746,0.408840268575046,0.677714334650763,-0.000555028673519864,-0.723777760622919,0.90729144304399,-0.621275622221304,-0.99957375880311,0.966430056824549,0.254317719142101,-0.950015070824891,0.97816610707816,-0.925200967083313,-0.493484836767188,-0.616020507000396,-0.502738623648294,0.6431811683081,0.334631520013619,0.923809632623479,-0.890428147227703,-0.369538910393388,-0.152666130639923,0.334508973795226,-0.40158618679344,-0.0910014291717678,-0.677918536438569,-0.812011495145043
-0.405964724442905,-0.0187888187443785,-0.895791607860379,0.792116547837908,0.61271586996164,-0.374656767293185,-0.217955835730748,0.173963496076857,0.239317957888971,-0.868438935777377,-0.30289429114335,-0.257279194545596,0.0791687318492535,-0.817741530862516,0.545956421432065,-0.463019957515886,0.733376900541306,-0.572814766118682,0.278827594257345,-0.519859606176549,0.860089442627546,0.908927985424608,-0.673668971133264,0.907313735181146,-0.896031442049905,-0.39596958337164,0.604614870438638,-0.835752123890329,0.150705252378576,0.915993831081313
-0.285216416830763,-0.00146644236588223,-0.119819309152579,-0.747450862893579,-0.0696813655410341,-0.538440128573421,-0.0980591229619734,0.742022286049101,-0.380586911635747,-0.299839183362126,0.478127398285143,0.124614551255766,0.936600701853913,0.156470571251805,-0.382420292767892,-0.709499790197937,0.0126532386116001,-0.502253782703659,0.0874375529063109,-0.45000755481888,0.0960337990410782,-0.68940868959269,-0.29294876628227,-0.961940684338073,-0.156145509870791,0.44628111340398,0.254558519113138,0.240639860388189,0.438918887376282,0.135484049625455
-0.292212780235434,0.382636873695365,0.442257824094155,0.298017649584458,-0.578714953539295,0.523697045409911,-0.237444775755259,-0.365448003339324,-0.369242786136103,0.670294082570027,0.558920534122233,-0.696354365766213,-0.084790081290896,-0.930450260606804,-0.479266725238071,0.857637116619217,0.701359184319786,0.754286018085799,-0.475539719441691,-0.0710473000402783,-0.00465812115215614,-0.735701439779113,-0.970583767616462,0.0756023587079731,0.550856038718883,0.142677845034133,-0.0491058412236655,0.724280306941029,-0.198596621490362,0.653617683636778
0.0679018735270491,-0.380165532874021,-0.412170834565615,-0.918789329900774,-0.51619843929829,0.0465699634731607,0.824451327242167,-0.352100705426233,-0.793411595650675,0.0350501970551211,0.376740268141376,0.276389164513158,0.581633313364178,0.515355152783615,0.54251129717683,0.189581407788015,-0.911853975575349,-0.498302252729564,-0.72234289335196,0.810559042641222,0.582500588885742,-0.467330620376082,-0.376960347116441,-0.138936467067775,-0.155656418369923,-0.969688149154972,0.283120247201584,0.61317492910343,0.194383281839259,-0.884659425301784
0.542092581066346,0.953252322950052,0.453985802575008,-0.199152518622183,0.598996714502106,-0.616228146299826,-0.905301616483043,0.668998070838395,-0.479590580556351,-0.77191599447835,-0.688941276487401,0.364772726485866,0.487073912046418,-0.0768304108999811,-0.674137426388514,0.330186150656169,-0.548015902539723,0.429875917467231,0.626586415631038,0.453303025780852,0.452836857853847,0.251202982501687,-0.320920507107359,-0.198552431165498,-0.266879046925753,0.494413655015833,0.540626803199121,0.104648185476963,-0.492678364502582,0.479341885763845
0.917110538071539,0.559551250915765,-0.206856288577829,0.187279634730555,-0.366794218945687,-0.829684886070753,-0.0842026896235546,0.875112116278667,0.413952473278135,0.800580457691374,0.491987886602053,-0.047093952562238,-0.00753898220487825,-0.0316805052718523,0.290203948174698,0.20308459140504,-0.913088303950191,0.865648987640463,0.416098457489209,0.927870008129566,0.20376848392364,-0.413167232374273,0.645958285613897,0.909485635305515,-0.0877205157129656,0.462984652008388,0.673011914674664,0.668562460536399,-0.838085566571954,-0.88033897610397
-0.0934939389552427,-0.590357698309402,-0.244492747469103,-0.132755858419815,-0.420324507830816,0.919310557618416,-0.284111001195438,0.892257309468583,0.116298272794251,-0.136369111545556,-0.404582430331308,-0.247686987392459,0.0899541401723187,-0.520017871409663,-0.375809781893999,-0.823898056440008,-0.980580083085494,0.897747876074979,-0.308040982721393,-0.980978143392586,0.673013675805653,-0.484373168779711,0.849928612750922,0.147673629758728,-0.508941217096961,0.0976812248573085,-0.81366881160702,0.692822936779271,-0.229625874771562,-0.00968715129871256
0.537338942073909,0.998854413628045,0.360993795730636,0.255451615553094,0.0985786444966581,0.69842755035424,-0.840644918307962,-0.22081047539637,0.357390340118385,0.671036165054439,-0.808151666916977,0.212536820775148,-0.446011734868405,-0.820194807751195,0.946806564902331,-0.0892927791407764,0.516252930050834,-0.908701727124258,0.287586589943425,-0.98581005073423,-0.0673384960123051,0.578106749606369,0.579748342549311,0.824182413436557,-0.111731701116884,0.676098549587698,0.217641358830799,0.224136956606124,0.95111171712685,-0.625982262951314
0.373368984727827,0.129452932220629,0.300468742521698,0.0934795639912969,0.143695400629051,-0.978610023846203,0.362939318345366,0.969179516643835,-0.774810015119058,0.766265982653138,-0.63161796500516,0.463693794544644,0.188160436781198,-0.414359865437429,0.378899610312143,-0.441746579223194,0.213603091991322,-0.0766145489535363,-0.0580387995848612,-0.0205859229995804,0.394469166823881,0.807642114259136,-0.637543605471749,-0.969694460728063,-0.880707688574077,0.508852222705657,-0.113425894227543,-0.1999526876956,0.439795727580691,0.0461592213465643
0.3095059223983,-0.822581095538373,0.711570965923169,-0.443833580912945,-0.549103721766315,0.178473000032116,0.953239924252611,-0.328429632507465,0.420825563101482,0.200503799692031,0.487156823969985,0.308488790555153,-0.151596157416513,0.748172395745373,-0.954286710337869,-0.41062374571833,-0.702372129867958,-0.624903636809859,-0.90955500579884,-0.0931270537400278,0.350162619422266,0.392463351316966,0.925229756126753,0.0652177916212091,0.636407835239734,-0.275924255734274,-0.634011061691684,-0.704150444690208,-0.642790328544933,0.938035492756421
0.638471078890595,-0.528534573283295,0.350631280499804,-0.416224976729706,0.706567333874557,-0.989926857869107,0.93837693610153,0.931668778849611,0.349817153694954,-0.650032901973479,-0.525422086718223,0.269217054019318,-0.94559160058647,0.00947952410647623,-0.0994418575891488,0.371561033358593,0.0831672861628081,0.337341841001688,0.0416613961763965,-0.171346503855356,-0.956325693966973,0.0983430748332026,-0.310543966158547,-0.343831090882342,0.832659044225076,0.217408263691425,0.552254952281832,0.697197347738406,-0.618675524191314,0.618003735140899
-0.206474986489152,0.856274084121117,0.571238629320282,0.316455498019445,-0.112650961201941,-0.067631395099513,-0.699449482233939,-0.822719792752862,0.84491891220441,-0.34327192015167,0.338661499944824,-0.299358997167721,-0.409537317887664,-0.364032008389026,0.0379003375013827,0.318296613785576,-0.897952518378362,0.328700204998581,-0.547888519031875,0.122369543240578,0.00799746206402663,0.25394901971051,0.389450949332421,-0.0725448602216993,0.539800772229117,-0.149709820351428,-0.53144676682141,-0.982860628507501,0.34983397338066,0.30823370595846
0.185882206627113,-0.834621086639641,-0.0862489245302271,0.52771845531078,-0.100958325481489,0.714080867224411,0.45323933821788,-0.278042022733969,0.614232445887398,0.189287638845522,0.21610023603593,0.826285534457436,0.791842569500135,0.447826849970886,0.455713253214822,-0.356634643560571,0.891412980803947,0.681723628976254,0.287510744895558,-0.313139720500046,-0.940076128551772,-0.574528601753772,0.81692413232146,-0.647523743867652,0.16609031854481,-0.688888897974458,-0.911752142902348,-0.788416982529879,-0.875916343124544,-0.546626279850782
0.568161671780125,0.371984639843919,0.54071552098762,-0.246140755361943,-0.89260138473129,-0.401738903206652,-0.586830631637401,-0.0571035160949005,-0.114016479399994,0.689971205634051,0.160104763303001,0.0479088672659866,0.0922455550600987,0.0863281279272996,0.483103272264406,-0.0664553861443211,-0.444640990088061,-0.194699244198715,-0.272227393124358,0.815004373814447,0.451158709568511,-0.427967626335084,0.533106433010244,0.836634957155509,0.362516866700033,-0.011556232819127,-0.0314876302292048,-0.758934707268576,-0.734189597766003,-0.596560537627228
0.45317675427216,-0.724550223781052,-0.269214907320782,-0.949859294085698,-0.989475544537173,-0.611429617559272,-0.344438734159078,-0.864334094274945,-0.803636512627656,0.791239290400985,-0.443073926234187,-0.776517236501219,-0.181147425985498,0.660514799719916,0.0446249307341058,-0.519605800285752,-0.473653081559415,0.824242495849842,-0.681526568569954,-0.229024480669305,0.655470680284999,0.261898190370713,-0.293330354286977,-0.00204324862083571,-0.269116800869404,-0.396597676629479,-0.743600373968296,-0.409771583699515,-0.0556231490595374,0.481249700058834
-0.691280872417279,-0.917145785837036,0.716297682242607,0.429850221346063,-0.411690540337791,-0.752291875776039,-0.224827264074621,0.731163488575799,-0.447992708276954,0.681193598397632,-0.717930154743572,-0.0420732940743087,0.402132621687899,-0.576265935588752,-0.922378532552337,0.338922244188805,-0.209319600467253,0.255153378124886,-0.373698401904525,0.449527302500572,0.602396406048162,0.967650954596536,0.427175612853456,0.944489411052544,0.285641804936175,0.0872639804553539,-0.793607066289339,0.168688650787197,0.403404094932323,-0.397143111283492
0.284702627586528,0.91008991464511,-0.486555433593018,0.133752988248017,-0.0277865934315075,0.221468663411899,0.608130476255031,-0.815790459427885,0.136903430864636,0.942565580803233,0.816242641683781,-0.776100180007564,0.0977072432160877,-0.775506034388908,-0.848471627500128,0.890735784494661,-0.345948208750201,0.713530326128719,0.10015545464128,-0.634928177872174,0.54521594734174,0.0568194347698332,0.520989491381212,-0.72141140407017,0.510434212866441,-0.932738688743086,-0.229452560296959,-0.860677012177499,0.696408776425016,0.30563099277468
0.592327259291116,0.303427340138437,-0.453712175345846,-0.358953179493059,-0.0305696814463333,-0.828330978671243,0.714338495263056,0.177947738756401,0.337881788303089,0.814173821273341,0.173614576074115,0.585602433227749,0.983727324746422,0.14264113788616,0.35463868517179,0.985679033205695,-0.741318274168912,-0.981972871339867,0.186106358275798,-0.697669628866794,0.151118548191673,-0.445998029525391,0.725195153488403,0.609655282278385,-0.298254536138035,0.552119616210516,-0.239247219282783,0.887626818328922,-0.547886091073922,-0.0625025541812659
-0.834361052063462,-0.24046988191105,-0.483557302264291,0.313908986427779,-0.685815935808148,-0.859397415006253,0.0729512530718703,-0.8455766736742,-0.852940293891793,-0.47053095580569,-0.0429132753251648,-0.927386875230533,0.271409305404597,0.764476071933506,0.416203609395867,0.0553856962618351,0.198097218385943,-0.952929542378024,0.404889674580139,-0.508130215810672,0.180761612570268,-0.875847817340795,-0.327988540440793,0.248175899148069,0.845665791931407,-0.255794123399907,-0.480705901738585,0.0224590930260993,0.794075107106043,-0.125507908466043
0.881964096744528,-0.00569554185760002,-0.384937562693347,-0.995810094287531,0.554393958092851,0.604305108824887,-0.914579832886616,-0.691704886821892,-0.419847291624102,0.870013181059627,-0.583624018162314,-0.587073184357525,-0.61744433064826,0.618049117558659,0.300325460406172,0.490355209210122,0.533608482002098,-0.803209111934159,-0.795157243402282,-0.583765107013176,-0.654357413600365,0.60489440690954,0.274126926099009,0.789403790509982,0.140145606892251,-0.118818651474462,-0.652507703589512,-0.564485165087732,-0.357610436788579,-0.195133151111721
-0.614789748384985,0.449841239233427,0.379637800799514,-0.794649349429947,-0.7460768286819,0.553096753337,-0.374919098510835,-0.424065773107142,0.000293300021576348,0.263644648372962,0.391157948128487,-0.390489108576667,0.704555052195003,-0.160108099300465,0.204464132527105,0.48305567050495,-0.868137184469093,-0.716458161229481,0.0481679602750429,0.596034981122257,-0.200103906542111,0.814656867559374,0.711422829754382,-0.872321588859112,0.376981051348607,-0.723516910208164,0.192888235297468,-0.956657249460303,0.645022515973552,0.264102505177307
0.577029011015328,0.240977067146905,-0.300205791043213,0.511560228425805,-0.0822807480964254,-0.129801177945827,0.841219052598448,-0.422587168134091,0.734812211121811,-0.675616952439592,-0.39008251456082,-0.796287847587973,-0.356468591539407,-0.444578362370179,-0.061608556221057,-0.553913336970803,0.372134344359922,0.280177003368818,-0.897014476310934,-0.742498481526272,0.726198076143022,-0.77148804616718,0.646949230528879,0.363916476892268,-0.149854908301427,0.10092896181202,0.0896523143582291,-0.967875581219734,-0.579054705602608,-0.309622735394921
0.249365242779891,-0.295044736608418,-0.961261615139088,-0.00807789387557556,0.126261630619998,0.94420983360345,0.39471364551909,-0.259401328516845,0.465148741130321,0.040366849415175,-0.0859963358780352,0.854159800267853,-0.653128295975331,-0.455519716001823,-0.0781313418774546,0.754293352251078,0.790370929888622,-0.34272929343522,0.779376440578781,-0.146582381402414,-0.0794954668169354,0.660187970688654,-0.948062440356269,-0.401906293538355,-0.943292913932024,-0.581780425078133,0.513294137787677,0.507870403820588,-0.0469044638084735,0.123046882042217
-0.308414060300409,0.965357317573092,-0.352119167033638,0.463693086739487,0.760476391650958,-0.653790659109964,-0.541861469644057,0.810600235970039,-0.891215934367485,-0.10969350911197,0.855185604586818,-0.481878499259184,-0.0214108876052364,-0.963969601301462,-0.672242953289413,0.965847203492116,0.635546485723717,0.71929706713152,-0.48866681637646,0.800090073514772,-0.616828141555576,-0.088571175508467,0.560329296421413,-0.34874938491208,-0.851327740518063,0.371609140826207,-0.12759527802821,0.730273469225631,0.898972018574817,-0.249136169091396
-0.641145101581302,0.231329148277328,0.855808728307397,0.0710088876406703,-0.0898132245474557,0.925979979301794,0.606098820271948,-0.883165099603667,-0.0388537566358473,0.455000724389684,0.993653591719295,0.68242617495471,0.805268359279851,0.144260505747171,0.537685075559507,-0.395561004707385,0.179871196476683,0.298197364107798,0.807678363196402,-0.620757574038933,-0.35934468608319,0.973623519751068,0.144577261593462,0.940807822132859,-0.493794777194874,0.857864628479753,0.495026572372311,-0.990676965560148,0.95016847734813,-0.22166946773495
0.185283607423903,0.652494910011298,-0.297249773190007,-0.00182215822945453,0.935056864253737,0.00849972991668602,0.903827920511285,-0.373730403079526,0.178596583743857,-0.88737745577813,-0.521867261045551,-0.493698860282869,0.0424215668078611,-0.933720685510766,0.787790412915773,-0.199591271206546,0.549499400681583,-0.954498424173565,0.808575719505817,-0.861267189430663,-0.804617739191567,0.704093629356517,0.905595646195857,0.71207375159118,-0.142330676849154,-0.971961788820085,0.861506798240127,-0.0412645717343616,0.552201385401283,-0.0325209866429311
-0.701605222048985,-0.97880503999945,-0.434151034538704,0.0838169097359371,-0.82128603468709,-0.275992757303637,-0.297789672993957,-0.583674004107562,0.801016382780399,-0.282005946748893,0.276463571598969,-0.161737046745483,-0.93647564199589,0.972042222494279,0.983638830475341,0.0299514033971129,-0.00375607377093101,-0.518491608797802,-0.889372510784013,-0.425901436910919,-0.859268591673704,0.0920970659200555,-0.247267170458691,-0.592984987233293,0.75029627967174,0.879157212506587,-0.689088842686773,-0.562250667979126,-0.536017387889334,0.779969937065602
0.202908486688001,-0.0221851687050355,0.0141654047249655,-0.781370282071349,-0.148789016133542,-0.764317199478074,-0.207744951922328,0.677141840419332,0.703371217336213,0.558317511136792,0.284168376253996,0.632580845445665,-0.513829231967139,-0.531240648371745,0.98677057492862,-0.570845916667416,-0.919370602778797,0.527736450325575,0.77280525852591,0.799387110303802,-0.405465150906455,0.677576439305011,-0.623257661994201,0.393592726156857,0.472463924192108,0.799555277358533,-0.848172891814342,0.590497200186596,-0.931641060827133,0.3272152167406
0.475577382126626,-0.709080154872071,0.0940352171166032,0.859787651272392,-0.540387334088044,-0.246961776747816,-0.774676672078053,-0.34417505811163,0.765678360017798,-0.00552864605818348,0.450510903005726,-0.62582576257448,0.179026619148919,-0.75134423829212,-0.891064213538107,-0.628567315465103,0.951495864405993,0.332818713659802,0.838404747582229,0.133071762105949,-0.921047487259399,0.86394937516374,0.158867626990596,-0.78605115403703,0.873785204195317,0.993975327347394,-0.387870214594468,-0.280449127443344,0.997817318885502,-0.306397531789913
0.58654416892051,-0.0161137250327104,-0.134082467823328,-0.526835728216374,0.417102701690562,0.316439035961609,-0.727597895882837,-0.531521908720733,-0.718752064611182,-0.084002902304755,0.775933063484697,0.677234046942198,0.774107435612989,0.554074333773029,-0.0902255378152362,-0.77527402610298,0.111344883735918,-0.0450017615430997,0.316884389760385,0.369196175303867,-0.0982691306147115,0.984802991144733,0.119214380681149,-0.609517031167409,-0.688693478558535,0.0491321361852495,0.300058022746843,0.328220244184239,-0.368465646807321,-0.0825775326614163
0.0327597703005931,0.686223530995764,-0.791444324791173,-0.150613875664125,0.497930708107506,0.832855848517667,-0.230135645358886,-0.0975993914052842,-0.138052922272148,-0.445932010862013,0.318064642752551,-0.139595269756203,-0.0466934940995153,-0.677708395606702,-0.299301789747226,0.138649759413046,-0.745002995126416,0.53927375261638,0.931727321786679,0.231947879880642,0.183858194939726,-0.33872986926638,0.736954785760937,0.0888924342994077,0.987070381635367,0.877847022320073,-0.243464083989833,0.83930527783898,-0.558951710145432,-0.538642446295657
0.37179780442817,0.542785439427377,0.559644219260497,-0.146168541696932,-0.195310177838109,-0.773745111084424,0.00478261197208552,-0.442995078602338,-0.266396635801716,0.603009042145223,0.277076750657091,-0.765196488129532,-0.662642883911097,0.249744568602063,-0.627479023126643,0.159229559432357,-0.891218622164437,-0.946672832568489,-0.395786120274936,-0.946631676492575,0.0864722147055306,-0.84859537419332,-0.0560168554335911,0.390021249367865,-0.380445570396467,-0.0957170888295943,-0.256749339055619,-0.434490260404763,-0.607291281040428,-0.0546305463903726
-0.423169204696626,-0.814482876944581,-0.857106800124565,-0.816973231647617,0.0756158498467951,-0.433148556124954,0.194023863968451,0.926530618186356,0.214792530618046,-0.413522967795619,0.353824648705229,-0.541116775731145,-0.00289543392271518,-0.157783042247306,-0.176148349966923,-0.836362754849886,-0.566825892574538,0.333548626552126,-0.654662788684789,-0.45794557754786,0.403012107779743,-0.448022951114933,-0.898611489636177,0.999632238410242,0.5218241026261,-0.209191882614601,0.425848230452206,0.461973672482173,0.316510580161824,0.906197778836916
0.798570312465807,-0.208430427689306,0.837021712137862,-0.0781143042622666,-0.640919006262403,-0.599114795028751,0.00780146709075269,0.348306132177034,0.0701746209851348,0.602892512270665,0.965941218643422,0.138602554397007,0.256918402042668,0.166040386616271,0.775596329837849,0.994567830113027,0.341904502055563,-0.495374438117898,-0.0169695452866002,-0.218126239822305,-0.372662587730523,-0.30845995308294,0.418402118337528,0.835051362325927,-0.154254918524183,0.884504504448038,-0.121656411849734,-0.78862147582165,-0.616002443067731,0.770970928376061
-0.191077559809702,-0.819142468189421,-0.379115622201523,-0.375214252329997,0.778655595974371,-0.403805833032264,0.0581139917756031,-0.179455954199404,0.100055870180976,0.586162208386772,0.485733053407508,0.393377812296794,-0.505635003329085,-0.0142424772559863,-0.846643844547981,0.496414439518198,0.753116790090276,0.317503243366956,0.862320844951235,-0.714512483083882,-0.800667880010171,0.363911476621363,0.286554883833302,-0.581591163567077,0.637772274966246,-0.0930814748132049,-0.799156962800378,0.03050424299692,0.289384989668329,0.485846495947729
0.551026571332955,-0.510289367991634,0.971479696208369,0.792970112428521,-0.841036414653545,-0.939558003069627,0.946743142766293,-0.766531585606994,-0.340438162600826,-0.393707604796489,-0.900363834528422,0.245815906322475,0.590732641327536,-0.00481782807261577,0.235132220776348,-0.344810379363974,0.225482058350687,0.330591452927604,-0.297726057142823,0.406371249540882,-0.45455251049928,0.242913174090401,-0.771826314633631,-0.794976245516434,0.10470197960022,-0.874112711229414,0.681717857570256,-0.996796789577602,-0.504618339941193,0.690271788132504
-0.595013214086654,0.557345307225988,-0.779220185139785,0.163245257531873,0.373952731198609,0.591474535684788,-0.390844382993339,0.610499905240955,-0.659032410783243,0.636566787788908,0.139623787784774,0.31024441649683,-0.59383317157339,0.892592734607213,-0.820555069400256,0.962752893549741,-0.60736474097118,0.481399140079226,-0.9314139987954,-0.458976975390211,0.354945951772363,-0.877653878125201,0.145281228770167,-0.335297493885875,0.7193991959651,0.626178218809039,-0.0115966289358198,0.487208366155256,-0.93222070016536,0.220742639722648
-0.406461329854308,0.584650071144407,0.812580967234718,-0.815980468790969,0.238507329131713,-0.594881144163609,0.942990042242682,0.717595480250938,0.376537196979177,0.353095227551225,-0.283371008598884,-0.823816238820467,0.737267426092768,0.0889004129399082,0.292330729445597,0.0996444733346089,-0.604738933781506,0.148503610467773,-0.143721318404992,0.516787151581043,0.365212967323704,0.723304059227605,0.124379497545017,-0.931621449036347,-0.0998651241417347,0.529566270080193,0.70587362335337,-0.877180674056141,0.0914785392077073,-0.726760339795966
-0.574729661259209,-0.462714208039788,0.343431658737097,-0.670297182942879,-0.253979103292329,0.842416353450351,-0.535910853899974,0.491721362570171,0.207477287020291,0.52556707967332,0.883005749379753,-0.125229972938648,0.0457294029396631,0.303743526946634,0.578755381320955,-0.0041948878225847,0.838599375373963,0.205840138348676,-0.702199807251897,0.932891405156297,-0.428488481523697,-0.652142032818935,-0.0539030223404537,0.622813856053545,-0.127913052741398,-0.544719963122494,0.409136414252751,0.97819091751156,0.534344601228062,0.617482253172194
-0.908241821410247,-0.337340046343086,-0.3654932833116,0.426098786027217,-0.483855387886919,0.583742813944697,-0.0330307078701587,-0.73545842791696,0.647163581870107,0.557720420676153,0.389927615127492,0.159365809131118,0.0304662496924708,-0.487561226583813,0.677399567178171,0.421753737806228,0.442610149943554,0.637119613418877,0.16430326232887,-0.364683669695949,-0.161230677348203,0.467744260778532,-0.342466494693638,0.224648549791727,0.172644997561651,-0.216914792180487,-0.524252027051641,-0.0592374275714334,0.138884251536282,-0.770191639554776
0.408402392365226,0.131099094232125,0.113869285729653,-0.295225266039011,-0.840430325754187,-0.108260728934901,-0.0303693502351499,0.942091971608853,0.85211039327649,-0.320054443236466,0.579538720464119,0.228767808167621,0.992506140839544,0.788583826175231,-0.338561354828329,0.134377206272621,-0.142225003401854,0.616853419512908,0.683216100411125,0.222594637993069,0.603120419011973,0.452877452342248,0.0304091130524917,-0.0402330286056889,-0.105471012697309,-0.0802068687417576,-0.354764665176517,-0.749219274031566,0.795918172130323,0.74804712261448
0.530827188645875,-0.296670570642068,-0.143097091998485,0.70180522822859,-0.0843888107148878,-0.107603679926881,0.600307247415328,0.119450677707535,0.447114194485878,-0.275157929991911,-0.467410854747245,0.711460203729319,0.945422957625903,0.19388703591837,-0.445783842096936,-0.981834829776471,0.979143874710027,0.807295301839381,0.156551045904193,-0.675538024714001,-0.478300245235814,0.0276721748652273,0.472753831871205,-0.284324881287443,-0.61221341398182,0.061296551051222,-0.348994158836545,0.0889240238298308,-0.612674660800339,0.348930627735765
0.858729864404877,0.610417607990288,-0.890156540968528,-0.854224478758045,0.534527764438897,-0.436892800702198,0.722940949594109,0.247301403082582,-0.182371712840335,-0.176465338643857,-0.897280278567821,-0.0372488531457488,-0.952853877075414,0.656362348076125,-0.487842554919348,0.117009536883333,-0.190406760755184,-0.880937651675631,0.184715597510671,-0.343323100983781,-0.350901785935695,0.768884504106308,0.968015281468637,-0.974425702343893,-0.26825543831487,-0.132101560538682,0.583506274774441,0.9357883464246,0.388516348501908,0.760022392384718
-0.0713342172425865,0.487068333424194,-0.501893735258791,-0.521002911739518,-0.372012491045525,-0.447259657758875,-0.711737053334591,-0.498548991744662,-0.878409736733143,-0.944921604332012,-0.755924374682794,0.268353348257185,0.25387013575708,0.166003834999168,-0.649834438995381,-0.218084089093881,0.460481267171205,0.959059918280253,0.229381006783518,-0.725435480347572,0.293709135285443,0.275968474930138,-0.201272258163091,0.154122546852623,0.696930397160785,0.846664833764855,0.532245535185675,0.596117910740952,-0.122675736957544,-0.841110946536581
-0.352406745474975,0.0868214811602708,-0.705046767231564,-0.863356639567463,0.976749042038223,-0.84311062555905,0.915515842808185,-0.0192692359067822,-0.523562110738625,-0.638038380834292,-0.479498503487324,-0.0857185633320914,-0.695857582472198,-0.934853868528667,0.220365452217108,0.626096339722209,-0.80276373857761,0.506824937419419,0.501765774330946,0.35992218524214,0.134130451425039,0.670948272417741,-0.607371409240817,0.282920143233109,-0.49514827108716,-0.300178470695474,0.964417353255869,-0.697019275136767,-0.0464961822361202,-0.826962159865984
-0.109797455887216,-0.748585868509759,-0.628065934231536,0.568228686958658,-0.606164733695874,-0.846277404504957,-0.746444254995531,-0.151034127525535,0.847358248125463,0.408019005045304,-0.699440218368285,0.470047045252308,-0.917021029590173,-0.0614153188939278,0.148101573413285,-0.527579936910225,-0.374249622865696,-0.0468234778599923,0.430928831655033,0.326965925901647,-0.487028801574851,0.237750065158005,0.78690694541992,0.010290587791377,0.32682685708945,0.281928485856358,0.878154880310481,-0.589086473728105,-0.308302458984918,0.110969571914044
-0.684697341027063,0.316331971118381,0.0823868201497882,0.0518992948587516,0.565406030772909,0.407229701712369,0.888415519096151,0.709971333718845,0.195810734851198,0.492828965882225,0.351959419134985,-0.305383325230974,0.0956097175812394,-0.662562991335319,-0.762464648933366,-0.719311675857432,0.366030158179826,-0.176561408292764,0.502154627583062,0.867658025523488,0.970272562452719,0.880428769570044,-0.942407510216538,0.849706853669931,-0.759876025728824,0.260831009252384,0.47884925430587,-0.342275360292883,-0.147831519668843,-0.0793126547147113
0.6006936978552,0.367571516599307,0.595891683174247,-0.995671640148234,0.445839162657894,0.979918555347211,-0.347655825944457,0.0905345506456376,0.612321111193076,0.625686892133992,-0.115409163346239,-0.564468905126894,0.235703768784042,-0.019598642838932,-0.340442772647572,-0.88598243700619,-0.699234342993812,-0.75191745895516,-0.96238779647387,0.854355166598389,0.907241607972999,-0.836962036712543,-0.0510782120055884,0.519351167380508,-0.0403720918299501,0.210231667016741,-0.992634302933064,0.463498293172334,0.940713130841364,0.83316748395244
0.967577733084363,0.911576424684178,-0.370232272599932,0.673592075553533,0.395970185937346,0.909163495483419,0.390014658398002,0.276798141783475,-0.434478080568126,-0.640226780269401,-0.41035818467399,-0.643760208805911,-0.209345853519321,0.861736341315199,-0.943929397474942,0.653315205896886,-0.0216099671188789,0.142035666453669,0.366996776949147,-0.13342904352277,0.61288120113913,-0.561173658613662,-0.198214554785851,-0.782216003063235,-0.54015054625466,-0.693388104296004,0.699103289143696,-0.10274311485828,-0.667779130706461,-0.345700797320204
-0.750919824350122,0.0767046758330914,0.843191008010503,0.822373561478394,0.374037826142291,-0.760979141928712,-0.927378545481422,-0.663650709047751,-0.293221511548954,0.146822841440711,-0.711565089277721,-0.895731392267966,0.0693368302049753,-0.720367594491862,0.47019958098894,-0.113439921808168,-0.936214588552813,-0.410974904620543,0.309871213189266,0.619930686252159,-0.412905488821168,-0.882745621671316,0.61845980008061,-0.0711007346730217,0.547587700908812,-0.884805585204067,-0.183854703411392,0.835113909018745,0.00520540634412581,-0.0493153701766
0.650795395323446,0.552358611278403,0.171457116106272,0.783651893857704,-0.067357146678193,-0.106805286885614,0.273187410679268,0.794091562644621,-0.746810241484461,-0.419869855707451,0.722895220724351,0.546865340111249,-0.795131651589243,-0.412116657668779,-0.0920917722825388,0.498201780718845,0.468120251534563,0.220562249059119,0.642867193391019,0.230375143340964,-0.3244773034586,0.244792487120625,0.800996245723682,-0.834084638317155,-0.520978433788278,0.625446280290115,-0.702015412832617,0.468501301234821,0.181055180347085,-0.150893285475156
-0.752891123179761,-0.578308909935089,-0.665259676829567,-0.180146644441479,0.0549029479990262,0.450341912661838,-0.527938795056166,0.934639543264471,-0.142595422054918,-0.0249876235728095,0.281541944146874,0.311650716379122,0.0849427762836883,-0.866228105438048,-0.0399671369418348,-0.321881189626586,-0.785827399131762,-0.463641295891088,0.177608857479696,0.3799052738491,0.00736745214432832,0.485777151531436,0.291562890304049,-0.169292146884507,-0.594117153246942,-0.308806247687343,0.80133761270034,-0.557542133870321,-0.318671105112262,0.137311020464316
-0.672333663176901,0.884620383328116,0.256798761550709,-0.0242621577457814,0.260303859254487,-0.0540135842999506,-0.547685530757385,0.37028008856358,-0.438573908730677,-0.125559465552475,0.364724869544024,-0.278284985236025,-0.0192298335112771,0.0651795915631483,0.063917466934732,-0.998785809613199,0.885227669908305,0.0118916775155309,0.436641731968448,0.28730523273689,0.459797994913439,0.241018164549497,-0.601080387644973,-0.103479031987246,0.101179085253356,0.638479542750157,0.381247130865812,-0.225417269033109,-0.0294595207224877,-0.597831137291077
0.518645116835202,0.901768404944692,0.25088226760313,0.949638217664155,-0.376437315426971,-0.476361903118138,0.480241489354633,0.189608944202591,-0.608568293791529,0.216207222648061,-0.56723759489471,-0.358465658202053,-0.302026472660725,0.540674061300547,-0.533985057628707,-0.655428521174671,0.700669259624867,0.189093065070497,0.963253576291377,0.902904121159997,-0.0933103529239587,0.54232056603875,0.958539940397507,-0.566459316558418,0.298295137145694,-0.69621524014334,0.0532863256769658,0.494752983327374,-0.408509926595031,-0.77412273817422
-0.516608837766856,-0.254298146466863,0.710596651635411,-0.242081290689335,-0.0223907125286714,0.536449312016577,0.665024504840851,0.217752654672485,0.356975774912618,-0.376800510742143,0.653891334149005,-0.900971548585674,-0.987109548406261,-0.886138142033544,0.865036860976851,0.635283506305555,-0.908709886441338,0.891463226588193,-0.0608976814248122,0.335414303157206,-0.57802713549604,-0.763064509147342,0.73843053064236,0.737587348435813,0.0599739062879112,0.262373000971215,-0.303170513968528,0.509558915863539,-0.546713822310192,-0.706002978471109
0.242628055271985,-0.744585215926443,0.327551858186513,0.982974217265367,-0.0501103927614681,0.808855914421778,-0.739890916151875,0.0961090890206904,-0.910806207876097,0.452704569069997,0.204372277112851,-0.63703120762344,0.307371288215449,0.946395114970577,0.229894955283913,0.901088840282098,-0.0585639286127705,0.359421971887081,-0.942325745682384,0.00790791446711303,-0.753453788232735,0.262043884611709,-0.0620611640913696,-0.264142397448487,0.61168621928044,-0.931931912867321,-0.898137815249217,0.564264748973895,-0.0279927817303653,0.100493710069216
-0.0531704039560493,0.695675678409485,-0.037711203581519,0.180106610609268,-0.33827250978829,0.283128041440215,-0.244339235706413,0.536823810793843,-0.360115518495494,-0.819696725262188,0.903459217354403,0.771808585977093,0.666133260198931,0.282673380003624,0.00251252809656433,-0.885010364411869,-0.271423217501223,0.898376223583881,0.11634103633293,0.234307473168851,0.96072370836545,-0.98604746627903,-0.114371421334507,0.934056734635521,-0.0261968118260599,-0.299184792348735,-0.0431306013106977,-0.215224179073807,-0.172329173969258,0.549554999707991
3.51113691325818,1.93565397911503,1.72601756328997,1.99312094933964,1.67873991116823,1.62427468654899,0.741195569346284,1.45407200877279,2.4252644481255,3.59171592034014,0.74782417786672,0.476201728953143,1.16870285978946,2.83192520944026,2.42312637717609,1.53738326986198,2.70941506284727,2.80148653090069,1.58530240412117,1.89694322380095,1.76384217374206,3.42687673858687,2.26881224227548,2.60617204001461,0.963344213628836,0.233060380179929,0.789039449202381,2.27220269361148,0.585901494410774,3.16812593749171
0.389189158561262,1.61511439793516,2.32509977478771,1.40075857834926,0.245070354940868,1.26280014499221,2.92898362154559,0.72619031980922,2.88888154238876,2.82354235408061,1.96083334365898,2.11323401914594,0.157009359335997,1.48131187310503,2.41486942806042,0.0504123280059604,2.68958788713887,1.62635436413174,2.7490324919806,0.839553937520624,2.97512785930891,0.528613109015214,0.165239285195823,3.19102809819906,2.7847681997273,1.50649708989379,1.21975702867832,2.39817883595739,0.403308697418919,1.1316608123163
1.47261149113654,0.839254019613962,0.767345858350092,1.07796273635605,3.54981803351539,0.83464479597036,0.0719940791241797,1.01768856282238,1.52962863646896,0.82984766179223,3.02634345191826,0.0136883435834611,0.499610808724356,3.52224599268392,2.33975220822718,2.44399075975827,1.00654575461827,1.44227738689737,2.11279457272626,2.97824016892269,2.58754702032895,2.86304901803986,1.45388060969016,3.20235939864179,1.75762095253804,0.401318776608128,3.39017978915487,0.281384772752125,2.18861369145504,1.33935164759837
0.198551130946051,3.05130036913385,2.63490010287375,3.34412922083592,2.06637608914933,0.495990178592499,2.58940782295047,1.10395258232204,3.00539580350993,2.27246341270975,0.773699451598199,1.75665741924041,2.89408817444653,2.33882525187862,0.850440940098111,2.18421213281537,0.950299005094124,3.4458910306198,1.94867515170419,2.27097723422152,1.01169289360367,2.84472746348229,2.89340390604614,3.04625288259529,3.53620862734328,3.39877086607682,2.04044658450431,3.2175875565119,3.0070269453372,0.96032290801421
3.56681450305824,1.68972742617583,1.6606506057366,1.88967897868235,0.939514469606576,3.27769277937603,0.0368337722666719,2.33209580068108,2.96641497657002,3.25695421754241,0.962077171617224,0.0301759176096767,2.4393398512338,2.9594379910079,2.96936560430069,2.01683571041414,1.64831502756491,2.78142635169505,2.57246360619201,3.45210760824946,2.87166181414931,1.66525981932192,2.57732406229587,3.44396891270018,2.86346715263252,2.22099371432373,0.843988028002897,1.26449287704401,3.3475687582733,0.988925520604907
3.33666761207239,0.633089057837189,1.26325421615655,2.3484428403659,0.342796206261402,1.13904481303834,0.391791597004883,2.46108556746556,1.66879114362821,3.21810003613033,2.45944053514835,0.0912688991479896,3.23748862540232,0.603744878155992,2.37991430851627,1.4863794594474,2.02753657103867,0.460630690893452,2.41070916262023,2.59286448461603,0.653570157780112,2.17342782028645,1.96703432424322,2.37133614307797,0.366489958933783,2.16397239647991,3.47620329161929,0.497800622739736,2.44367402775384,3.0435435044782
1.22621499506115,1.21251227819012,3.21176812351298,1.52241631388777,2.59902522368311,2.70756978853958,0.781192732221071,2.38375669530768,1.8697861441736,1.49625214277592,0.482371827253314,2.05424954223179,0.384690415107035,3.2019569868231,3.59706582762164,1.49304485949364,3.1406841849632,3.12114919401759,2.23903004780367,2.15355144615916,0.748624515509524,2.38530688974322,0.638644137344623,2.79231880921513,2.76784197220944,1.02366750343874,2.87355044804213,1.52717441857195,1.47345379696854,1.00944297956742
2.05892754777285,3.49985931902186,0.63132182072444,3.1438792692236,2.94958665303401,0.368868161350893,3.37239788331669,0.217823280495509,0.434105874986437,1.99505624528744,2.32054910879608,1.30809593131211,0.143509539842377,2.36735612376004,2.65614382021881,2.85241302161124,3.36985144604456,1.84722224187442,2.57455167741261,1.21080145799127,3.5355296730695,1.65588079153368,1.12103425223428,0.745326814961306,1.85927242797766,1.57269635534505,0.183755650270616,2.9783510967057,3.3383824790541,1.28833864055962
2.29930709297737,1.1417306732115,2.40547685511665,1.32064027251706,2.94288011125423,2.63340915340623,2.60132480552482,0.969751799744438,0.540608750721723,0.986129161802181,0.229993346254338,2.80431604851238,3.14165060834105,3.47646250197499,1.07630014395169,3.56376362608921,3.2651200687816,0.87267382762985,1.45271364257332,2.30447524036489,2.21253551236006,2.34056798365925,0.885804434346875,2.26000272792764,2.73440970700905,2.92182925479572,0.406566743183214,3.02600831325446,2.87597474422118,2.29358908100686
0.432187507130293,1.84144649870761,0.55191354926299,3.41552709686362,1.55040149705038,1.87339115043794,1.49366859546568,1.5977982426052,1.94334004518731,1.85112579811883,2.93108276023114,0.53128023228202,2.66295498156126,0.775289029244002,2.12879148522801,2.17926413611475,1.12705202117891,0.380196735998707,3.1861336735944,0.791681703362466,2.27652209283622,3.41027882854002,1.37885515325649,1.64657004775785,3.08020664298917,3.27205901894349,0.153674642626976,1.48330860672673,1.12367010094396,1.89514089333599
0.676264351735015,2.51773352181433,0.935248783293762,3.19291562735705,3.39354818267447,2.81627950035794,0.669039092524461,2.37307932580499,2.30550334784459,0.0451986870007583,2.37695493510783,2.70690854019807,3.18521574455556,2.89423855920054,0.00677526668029617,3.03391507819012,3.08733121542601,2.35798670163284,2.29574419907096,2.28464800430678,2.60894597890272,0.43927364183556,1.40731563894419,0.746214855809796,2.47090833656066,3.21090198290111,0.3721939714496,1.35143363128949,2.12150337347831,2.70791098899576
3.13123938940989,3.59680945537836,1.606297985281,1.0735367209993,0.058888043118123,3.02186084027489,2.22673544037469,1.45214739639878,0.103193562898409,0.0978807069817002,0.0177953319706932,1.01215602225259,2.45288942235191,2.39654704369444,2.91185950567567,2.52660680568153,2.00924110599293,3.02213781523618,1.64617587032084,0.433695594237044,1.63765436151887,1.27791185475789,0.343842727105991,1.58555121588779,3.58190012163571,0.030603584102636,0.914656468906746,0.153443263542579,2.2976952462912,2.47686735506955
1.25099144151946,0.693886449883639,2.39836234096361,2.77911014686297,1.66968366711851,2.68779373908778,0.23321936644298,2.43637030051852,0.279526806566644,3.49722897219343,1.23607720603984,1.67138357575582,2.19358597052916,0.368550554275769,1.95996614525093,0.601399464067723,0.232649509344552,0.108785712210827,0.0465824503668502,2.3475768489519,2.84344058318224,1.21068882197639,1.52967028279308,1.2213690463553,3.39751602643985,1.29427392151871,3.45850878388551,1.14859235731354,1.34886944785196,2.84111251795716
1.3701032628166,1.75335988633025,1.55165322197213,0.761027189139755,2.22931784104058,2.83074398135335,1.11863998338517,1.18689810912446,1.90548573262314,0.764725201001729,3.45064934652795,3.5778387525947,0.154063165632106,2.03192933035639,0.500433673570135,0.868531890059138,0.602100848314399,0.835085647197015,3.31886529797635,3.47719421362374,1.87589969647857,3.54723507461475,1.64537285046902,1.31283843056897,0.859630553638391,3.42933115429679,1.2347657650871,1.47569460155242,3.02591661523372,0.0672834143355877
2.3654262944895,1.68375966198917,2.95043707254829,3.43421259198068,0.456954414982793,0.0449867237568771,0.365341926536216,1.28075938843226,1.84476256400569,3.03847646295953,0.457082619544623,0.926490292943311,2.1446376709941,0.412325719190913,3.14553829931912,0.413768600120101,0.922058827673113,1.9668883634577,0.95341604880682,0.228109991284139,1.02374788924295,1.70951430672291,1.33975361182343,0.740991381155789,2.00369404461407,1.33334306019048,1.23103410994217,2.92464955231391,1.64841604961474,1.71071134475559
0.771326777884423,0.551868783194511,0.93344429365054,3.59408466294132,1.66552217959683,3.46005758692513,0.171181697478137,1.87235479516553,1.75594630192777,1.3759397261664,2.62120720121134,2.513953370654,3.52363696281036,1.41832061513249,0.770812489451288,1.25257730430578,1.58117471410948,3.29039357550926,0.663562564860826,2.17897336621721,2.51910300074103,3.13683304243574,0.802163378895337,2.45544322899331,2.49882593476159,0.744019383911052,1.19212659783295,0.567031288969811,0.00261180605860977,2.87633742917159
3.17731138354973,3.09906739531973,0.727188730205963,0.571701791031147,2.88636253405659,2.17808870662846,2.83509926685835,0.712347006570709,3.27313745472261,1.68115395460332,2.53170044465535,1.25205216298441,2.32290329370783,0.793223126974526,0.072840212133173,2.10457090647173,3.23320248556938,0.766810229591471,0.972044101065045,2.89673927989637,2.20876476401871,2.96791546631973,1.50490957419617,0.999244149680829,1.36691433087313,1.88821882600347,3.58739749509254,0.614600175346527,2.19115440221091,3.47569620827013
0.681484735143131,3.05846998424198,1.26060117616346,3.21320390161742,0.265007883433722,1.17805160376153,3.19328608065531,2.13440564374179,3.39612714843644,2.78290463443049,0.0189897380857681,1.7349990457925,3.44081846877971,2.60761362007242,2.0180725708688,0.484742033334795,1.06253733218766,2.24597078163455,3.46566304837617,1.47305267596294,1.88440909510684,3.49530060137403,0.838883980381714,1.51930036485163,3.59876137766929,0.617141620357121,3.22834855226257,3.2899651043536,2.93478936857301,1.3165067704937
0.575463971391071,1.78435394977422,1.15170853769021,1.27236658207717,0.107727656191088,3.34190436366103,0.645345634895072,2.54088120187674,0.73761404079274,0.817020647608219,3.07268409611317,1.101274086489,3.33639984044079,2.53244236210941,3.4978193331034,1.80418698108019,0.494083456552626,1.3463680113416,2.61246367926358,2.17875522215793,1.88094832966148,1.12597140107582,1.2651283996483,3.02741045645783,0.109524709409813,2.91095605218362,0.585544708643828,0.795932619085504,1.01189435097011,0.175066582195026
0.0848183272801425,0.107682310094909,2.7912423130084,1.09145346483749,3.11470464035622,0.209708429784378,3.42578006378644,2.00655522737957,0.247943161729697,3.34591140791118,0.984575485524058,1.90260671149129,2.88644463647457,1.4775529834803,0.408503341678764,2.3593463066776,3.40876759654319,1.73680496371202,1.40611641155841,3.4120897705723,1.54015123412951,2.85257126020853,0.258084565521257,1.1044740188422,2.62244798607307,2.55360624685586,1.02740273430357,3.35514711018426,0.957628449684767,2.22388233105833
3.40125368805661,2.63240633245204,0.410294237551416,0.945012265511328,0.858592392904029,0.152768962901444,2.285852232336,2.76464390734427,0.912595201336125,2.77194177227651,3.36945887960934,0.442632257026915,3.19121235590019,0.811746802745269,1.68388551626535,1.66308471880066,0.991762102484592,0.185068040054789,0.954094449874989,0.529589927629377,1.21216392461777,0.731554959123747,2.68427828172421,0.228100115725817,0.305627533376975,2.60705666439936,1.50571420002063,2.14785053494752,1.18374096471059,1.37867368169998
1.15881208999027,0.302861921071476,1.3227573400935,3.24053662570218,3.17452163974499,0.0439802533220408,0.433132618681124,3.1171045217277,2.75585067232878,2.0871778153289,3.21729384288997,0.0328686224449746,2.81009643357717,2.82274623924063,2.94692982106792,2.33003704768142,0.504011540908372,0.728713582795446,2.4148646604339,1.91384858708542,2.2807708929669,1.69329141475879,2.31309215366519,3.16177328469314,1.97750936298515,0.757997384275309,2.97377242007003,0.947606436045657,0.573647487244405,3.43134286135032
0.201562284399551,1.44414205525263,0.520828847270845,2.1258984378194,0.155702516695346,1.83686763767007,2.49217774276257,2.58913394426421,1.45064233348269,0.613720955612939,2.10640553073325,1.11963885478659,3.1132225991754,0.119371794406032,2.61708321264809,0.0320003276839854,1.85877280284593,3.05840747368448,1.59288618415263,0.533932791153869,1.4512482478522,0.465595583834497,3.25925059917348,1.48553689210002,1.11963490020467,0.164236008266097,0.362327856180411,1.14817299393386,2.62374955314386,3.39007905711889
0.431464244439948,1.45135975733928,2.47945637911533,2.80696220528659,2.96880058356039,2.18737941933208,2.04417419286639,1.38170150005338,1.73585255487629,1.79156098505089,0.466785520718799,2.87560779623483,2.54959923278056,1.07648799246014,1.11109706848445,3.11363293189259,2.59991070134561,1.33079187037926,1.24197055736648,0.586596277070509,0.485300170856202,1.17776377926476,2.17996141322887,3.15136631035775,2.81669161339136,3.46426159081248,1.80176948597737,1.70172091373323,2.45504794514507,2.09226804286813
2.92156379656939,2.72181061185981,0.93811852733517,0.0607418736725775,1.12067297041448,1.77110465866099,1.06698992153024,2.93566005217641,1.99504365231611,3.26978096685828,2.48509351410209,2.04368807600983,1.59403173718324,3.397786227147,0.263705442968619,0.865544561327223,0.931460265317681,3.53963501357456,2.13081859989596,3.32976491364174,1.04284155957533,0.390190044972203,3.56399311924539,3.50317343301288,0.633458781909877,2.46361316054296,3.53183641039386,1.5579030405534,3.10289443987556,3.51647551838144
0.79003747906072,3.41504239319593,0.795564432253858,1.3806639813728,2.59072716133237,0.683337709067081,2.47795944161618,0.403174239957321,2.77543493210126,3.01200617133268,2.2402961443366,1.99733308534945,1.60852189697722,1.70851676972048,2.18569668186162,3.03582321509524,3.35078100531864,0.802100227960432,3.25757608099728,0.360018187556424,3.3714733627492,0.280680149738062,1.80422689570311,1.36936414827097,0.243078003378156,0.580503887394678,0.333805149949065,0.154352805649095,2.6326169210638,2.64001601591707
2.02223470882617,2.33769351725359,0.961119182110354,2.57700612329739,0.875543031876694,3.35489895891161,0.528087268643122,0.670421030312041,0.245698766338499,3.17191394249532,2.84885682316909,0.0421300186040485,3.20319230668395,2.05120212866515,0.780763158006949,0.980274632098281,0.701636116160842,1.41100693187258,0.242089716644068,2.87539720259393,1.15881990862955,0.978650118680042,2.39052904173291,1.6867017150329,2.40416009500817,0.0179597966456599,2.46698761250218,0.928486637644696,1.05332594078655,2.80383866056979
3.44712830178772,0.762080319953188,3.01000805469696,2.3321466838625,1.76775759876136,3.01842319379487,2.48541949805125,0.313875956420729,2.4756735004837,1.2497396394842,2.73433251638633,1.47203978499027,0.520481868330614,2.3516869134976,2.85418808909794,1.22269146257205,2.26981052191454,0.0587681634625272,2.66444035035765,0.442787261885957,2.41457440350883,2.58728302055378,1.07541670141528,1.98638072236738,0.853444194446059,3.29223758917872,1.04768519655228,1.0057524343048,0.828766458308681,3.41661949856981
3.38453751941423,1.09122445280255,0.771712164381385,0.102239061939641,3.20724931378255,0.357895802500609,3.34654744013518,3.24189681580379,2.30887848879624,2.81150656138151,1.72209368931227,2.28087177084799,3.15085825303144,0.496979684055308,1.729559817598,1.62924720702192,0.824929253209815,0.469767089406851,0.250064720329859,3.23804430367334,1.14367115085184,3.19372082147455,1.14825468228583,1.11744379863024,1.10547062545338,3.44208830364146,1.26365049577488,1.17943995370504,0.516958947720453,2.97380350351976
0.976778629131978,1.62054742855045,3.4266150840682,1.00919549549427,0.525667941256272,1.14297862292406,1.4242390132622,1.73090050468729,3.55699595676595,0.199782922025669,2.8412564251764,0.416972455203986,1.66571306738337,0.925632797426373,3.56181366516362,2.69978473721993,0.688817760482811,2.22487975909602,0.615726047668478,3.17096681928773,0.448917344980369,3.12658222463288,2.06973046812682,1.94224412811093,2.41114733834339,0.276824784407776,3.14340392646538,1.17175551539834,1.76282352607829,0.0337348753743502
0.842979711872982,2.24348015610291,0.925368393643465,1.55743946431085,0.984968414057497,2.47009416542486,3.31232304820433,1.24382806757643,0.918147293533267,0.0471202584202961,3.52051993753785,1.47173407183575,3.55912156382535,0.963473945373424,1.65327684770025,0.801051643491281,1.46053800334248,2.13666246111349,0.268669821260809,0.154949100946518,3.23839161453694,0.668833908563868,2.82352557518684,1.52134603202406,0.0372300233865297,3.21390181743256,3.05657644358304,1.64333108088157,2.85458001347938,0.330600029197801
3.27262680571183,0.545929802463357,1.96597369162644,0.602185074706648,2.2834782879257,0.0604366265518761,2.78170585966748,0.831490373998643,2.20299656624114,2.64466834936508,3.54476962496749,2.97052964613332,2.07892883069763,1.6554529020821,3.56378471998674,0.468023246185865,2.50626060241194,1.76100291132974,2.79710767548397,1.27814831159923,1.211916631652,0.039784889500488,0.782212441033783,3.2444627057968,2.33236251284013,2.96815267082683,1.3306178821859,3.11448311168444,2.77915014865769,0.813208935229671
3.30261191767762,1.74142252734929,1.05320156172533,2.7750260595116,0.452487630048994,0.980374784106563,0.549463757010858,0.533103225814692,2.20042587844675,0.0284153390808102,2.3304203722302,3.16432260366358,1.19736055321869,2.16276570752392,1.18121325261016,1.90956167108825,0.563487207406893,1.7628488377495,1.67471625733875,1.06280365375001,2.35758909599743,0.390598272155318,0.485473837184475,0.477504187858433,1.65247694591641,2.43199015931785,3.30688668326795,1.26067024136925,2.74117735453936,0.520604510661496
1.60428732931814,0.904796242762728,1.43321688316447,0.262813216197683,3.01635875618847,2.05391458294071,3.39172077690797,1.78872457919117,0.42176872772247,1.61246226151123,2.56355111345814,2.26820348476442,1.8965967142473,3.35491896986725,0.026387456630537,3.3652393189097,1.40121531495881,2.61087207487359,0.253656967661184,1.15636707542295,1.87903903102457,0.735051532059466,0.93193768846427,2.13290494109174,2.07817068084989,2.06847619007736,1.63102416714235,2.64859514695061,0.186142144066348,1.42730404223656
1.76365016110411,2.83601860238054,1.86144723345593,2.47739073786763,0.402383860015489,0.918310194145101,3.01837156965322,0.776469274971853,1.27630388721652,0.863423292740911,1.45203101199681,1.81842126651594,0.804127729872301,0.400205661542809,0.402062246390647,3.31710132310032,2.83939347343491,0.803254545108999,1.97907952646682,1.76434316009485,3.27599336862378,3.49124688836338,2.77039288541786,2.74806713980998,0.688626929693216,1.91662802282564,1.84601196881664,3.59624991807912,1.74780000231592,2.93962710636651
3.22247909271274,3.53900113717606,2.16837978892419,0.515677738616093,1.84230301018912,2.96937345814396,0.478069931118782,0.0672192391321153,3.17004133312499,0.767291491649715,2.05073346963652,2.84749218060053,1.1013121420058,2.898209737287,3.3118362272679,0.1650177598768,1.25166958945415,1.28677384149599,1.85284042034896,1.6243097799012,1.79772723941027,0.743163601655124,1.93076870419586,1.06565912173393,1.61687219534855,2.73232060649075,2.13104273366325,2.21191315437291,3.29377944697336,3.48313155317825
0.475878750754464,3.59844919703829,2.29863375290233,3.0333376019417,2.2673965170362,1.40734903412282,0.0014219177893465,0.292995512435676,0.671575448043447,0.771151379854955,0.707713148513675,3.1384298436057,2.96857199900251,0.549702567490611,2.48978338171252,1.04094229407652,2.62367164000108,2.52042564662193,3.03933251846551,3.12634166401175,1.79828322948808,3.22444509324825,2.52871142948452,0.120646386836025,0.555908842084887,1.13616459497072,0.0659296732702896,3.2872943701629,3.42194585605615,0.37283840569334
3.33892558949949,0.486590013320833,1.89155520400571,1.63956649994457,2.45056144765139,3.17361923566722,1.49617509967469,1.67140808108794,1.38192303375431,0.447064334176045,3.5223030684154,3.4468563928487,1.9428692035111,0.949829693953427,1.54200789106172,2.61540568369227,0.628914791265929,1.90321495770626,1.20269571337974,0.392819493260616,0.429515966600513,1.90949419173854,0.0253421645729533,0.775087583612226,1.94203216151429,1.68758758999761,0.175609099201676,2.3333812292355,2.78371597415941,0.845493515043284
3.04175997294568,0.830111765503004,2.44023828899499,2.64090745981825,0.82579587494293,1.41573170843335,0.461235653078759,0.469973565856914,1.48015273636214,2.86547981689939,1.59459202717738,0.668199235884566,1.36332743287241,2.24104998588611,2.13727613712534,3.58399488832056,3.19058885965058,2.69536178963974,0.518414964768298,0.26002658040264,2.42543488406829,0.111122965678164,2.85313523991645,2.10665505663802,2.603375307379,2.06912592503667,1.93028821494909,1.52728356603872,1.96113586666115,1.63631899190895
2.11591016469333,2.08824159618851,2.51970233028741,1.35525179940986,2.81458078195089,1.6553613733758,0.486564943048435,1.65109197555626,3.50178788765417,1.62000570279546,1.54085991733748,2.15219061065102,3.48481037127078,1.67663946658216,2.94366033400579,3.03904499739364,0.873528775048223,0.752471849300187,1.66132825410987,0.518632612618912,2.9864951315273,2.65108574566016,2.1042435177156,1.5505595076599,2.31787467986246,3.12706123195917,1.93696511999563,0.851863397682022,2.93315093113722,2.5870492073647
3.33216456031993,0.24663141902845,3.23074770440848,1.69677619435674,2.84462595360569,3.38369392276914,0.711231680359334,1.23508537040795,1.3242977126149,3.47342772831834,3.59631092995233,0.503747524369391,0.139451438067225,2.22447902198158,0.615439867701121,1.60694241114284,2.25221417967799,1.71216665269442,2.26973188457532,0.3028349011684,1.40204476127496,2.68856445843753,0.298567466390583,0.0200398933235742,3.37965311956576,0.416228993803369,0.237142621836226,0.976520962722842,1.62988207080862,3.00861667385726
2.46943820941701,2.00382180996417,2.70405622213336,0.0103103209334939,2.06350783708669,0.354764729158378,1.91577310390574,2.58394465436411,0.65488459610142,2.56283147845549,2.28773353038716,0.0791371655087625,2.19571614907855,1.31361528211907,2.16927975722089,2.82298346554068,0.0944009598784153,2.14088807689999,0.527476020030433,2.50281982445289,0.854226410414198,3.29778279312783,1.47260205478994,2.39876982215735,3.21711513736151,2.93383090967957,2.02240099572688,2.23524075031059,1.75884874377346,1.63696466164522
0.519320736694765,2.5961512031947,1.15923636851797,1.72687911900081,0.322213365101355,0.537537079927296,3.59405165333024,2.02068829630534,0.765405598639234,0.915471028962858,2.09362966292241,0.434039250590857,2.38962023723387,2.86209841466607,0.744619870160064,1.40521010821928,0.818918986068535,1.54631071088198,3.45845772971327,1.83819691698914,0.46806979592334,1.05182781473353,2.97397078283782,2.73895893969525,1.71301367083239,1.24084421901072,2.30027769724851,3.3180270741312,3.12511668239027,1.55043645293938
3.40816690409936,1.79129261327502,1.6146756941521,0.980081962319129,2.55088931999676,3.57466686776591,2.44350696301251,3.13269743823106,2.48774628755066,2.88380111161796,0.95101393281995,1.8476853219083,2.49379404023932,2.21144959657055,0.973136013268091,1.3699537950428,1.4072896500152,2.59416983192515,1.67156472544724,2.18255364083804,0.154747998972772,2.57431164485138,2.4274492850655,2.2336379007593,2.10349998925976,1.69200034685992,1.05457819712096,0.11824956318282,3.51849480435182,1.293781065612
1.01436018953769,1.92975255266286,3.35566402382947,0.000389845669451098,3.11896446101319,0.559207598752904,1.65425627476268,1.1000422769692,2.36258580496655,3.11505443226316,1.69442734368817,0.679221569317962,2.87456372961149,2.06550022385339,0.650683857803551,2.3833948653114,3.17047164327021,2.3338008071919,1.50631782110143,0.831731828130657,3.43277487765661,0.668178943296978,0.528047151178143,1.23405049202687,2.79560390002821,3.30868364931489,0.333734463683206,3.19218310601645,1.11813883442345,2.30976151391387
1.98908822293817,1.02388968422259,2.04741290325644,2.05302193539824,0.801839307696484,3.20862573795422,0.428557641817516,2.82785443925665,1.3561272489634,2.9578341121589,0.847596536226383,1.91603957298959,0.814216728328828,1.48904136581767,1.30376008511696,0.839248760807909,2.28022488741215,3.58377261533578,3.13517467451057,2.82527931743547,1.61548483279323,0.717098774536093,2.99468026617294,1.82964769258613,3.0052973094421,1.23392674831391,2.68603717716692,0.426420459349836,0.57270679966207,1.78184735504065
0.84739040343435,3.05455299851231,1.90340592092993,2.69237451622839,1.15842097865344,1.60018831044444,0.181250031190575,1.19057212862678,3.42946336708472,2.25269758750345,1.89554183832162,1.53202258512938,2.10982006160068,0.376409354608697,2.7312943732046,0.371321705342886,3.49026750488685,0.944224978491769,1.02118440988529,1.74954329736044,2.84370972944596,1.63311989104055,0.456631810616996,1.53035945460683,1.91313242386707,1.61306271423263,0.723814243042755,0.0266815340270668,3.18367945569739,2.54827243618121
3.36976985156991,1.73954843605847,1.5125042289088,3.39374488414905,0.221993751741011,2.9506747179435,0.113547057338779,3.23442275320851,0.664380605083136,2.39030815343853,1.19727982040368,0.863387911051227,0.5281838197858,3.03484860092162,0.876374411059718,0.916103336269084,0.710733840572989,3.07873120842442,2.81925644726458,3.2089671462816,1.75616947512895,1.29782469519313,0.703886613577551,2.19606938762407,3.26929211917766,1.48550930222753,1.41730488101826,1.57848682551574,2.65246627025887,2.08899062484921
2.00667686555846,2.00181967504407,3.37468600039123,3.05972324975753,3.52546531908469,1.71748050773399,0.801584063657366,2.40373622719372,1.15876621248143,1.972846428106,3.06563587275596,0.917260513323015,0.908825768953574,2.99626649441024,0.995289825925273,0.275389277877002,0.52695482155632,0.60842947857847,0.250345693458964,1.44765708681553,1.98288237414457,1.39415239644896,0.972464071294509,1.97154418210105,3.18463050666481,3.35441273141392,0.68996896626892,0.385163095772808,1.88993173832536,0.518832911606335
2.74083684810476,0.144480579972491,0.031177927195643,1.12148033712128,2.76677233072313,2.29476875844168,1.79338773702895,0.702695821739126,0.321078488939013,0.81396576073671,3.37143090840961,2.73773660004965,2.41113953311515,3.06647208662074,2.97300508198003,0.659045485155213,2.95133310302688,3.02594642295779,0.911818401753818,2.93154698690937,2.31559380642865,2.47533074099353,0.33860361517342,1.21803370938545,2.30071660722639,3.57036749123147,3.00142408227614,1.86028000147095,1.59961954299343,2.54877352144046
2.0945673682236,1.67041080392451,2.79571351855794,1.93726709482133,0.380116734085659,1.09751848927583,2.22298861230863,2.356157818975,2.47883268170004,1.62331383713675,3.24593412207716,2.42282578536441,0.346616007176515,0.633531768169967,1.55566617546401,3.24590668810807,1.08546582045288,0.91685724822658,2.85771749227201,0.534157984393722,0.128545438744382,0.503789075139812,0.878307715467321,1.71240752679874,0.690923467227688,2.50784074371114,0.159249290525564,3.12127597365588,1.17511215916607,2.10317282513863
1.6262811398256,0.421775384629972,3.41126290252957,2.80137332659279,0.485683896059954,3.18558511994108,2.47370711270427,0.216781560805059,1.67877720225545,0.11887116176955,2.21124181924911,2.81332834959651,2.73143225383546,2.57000598356594,0.643060917520458,1.14254370273209,1.52236908353975,0.0525095673522491,2.41881676466149,3.03228411405919,0.482155017593016,1.11319904192965,3.43139226931678,3.31804733319117,1.98666496108596,1.83322388857288,0.554360764918086,0.260822353260975,2.81968692840062,3.2094114827036
2.9982572316184,1.41559080361183,2.49595825434474,0.930921689481904,3.49201356260665,1.5865252081242,0.146994654716456,0.180932645397695,1.5214497882507,2.30729651688938,1.33610490902146,0.495354337475893,2.77163226882537,1.63012480066629,1.40127145862266,2.47584323234663,2.15353385589716,3.11178726866459,1.83816500205461,1.75646325580611,2.72362828120758,0.322712597960007,1.12940879274598,1.44883873567397,1.25915251675022,1.07018252139454,3.17579008153444,1.02100575129548,3.42399969055504,0.30919546983633
2.97097475369041,3.01034184219797,3.24540816771118,1.36229800775754,1.69703939282197,0.719321011528057,0.404443583639545,3.55325400193839,2.03256722503927,0.397718123904298,1.6978715766677,2.42313140464161,3.59069473631247,0.959940084703239,3.25416770244677,0.338801299007051,1.32317583343162,3.05931796126967,3.09609219017257,0.220005393316972,0.555094017160635,1.24849471060955,0.58401532815025,0.254336505315423,0.579275197619235,2.21041018357985,3.09074576305726,1.25137636533537,2.02550636344846,2.44044156858718
0.0908549571832898,3.41765349852743,3.27933035682856,2.16590265155113,0.417685840659629,2.93357868647835,0.409935383130766,0.299146226746564,1.03609598662522,3.1139197907941,1.56272663807623,1.0417294587203,0.258399676465616,2.4589553520358,1.15583894846767,3.44948414966906,2.65113472447318,3.58775879367616,2.15936403617233,1.56169050408606,2.61520138486065,2.88110043894551,2.85775618816621,2.38412353097653,2.75580899918257,3.25028806983041,3.39848693245951,3.46561838624329,2.29956389269771,2.56982985631089
3.51066454439921,0.441389321368835,1.82877933915182,1.48985620750573,0.331345579368689,1.16149000579561,3.22042003964094,3.39438931504003,1.98005336615259,1.80507663963599,2.36061885392322,2.71241160831992,2.72264583498363,0.385198534459434,2.52604198275415,2.11423677304491,3.05043532152215,1.90373088731604,1.81571891411008,0.672232369646538,0.179563044095208,2.44029581064372,0.369032317571823,1.22297578008053,0.236461553646466,0.449647785932593,0.549744031089239,3.37396911800558,1.18527043572872,2.52210610086196
2.36469468509997,2.69223303137917,0.971108787959026,3.16539548727004,2.99579347176281,1.08989948848723,1.4684853802754,2.00941738076947,0.847018151379665,2.85628430752842,1.38311254986707,2.38382230214021,0.708409855658379,2.85479933435786,3.25313341415167,1.13224890508328,2.31424240223795,1.34316828350684,1.67361548546404,2.2993546502196,1.06906177376819,2.70316910161784,3.07010049515874,2.29036076250037,1.97143205067675,2.97633243099616,1.55978838874017,1.43957845933716,0.0857500495788409,2.06487808211934
2.10214730599064,0.540184093332004,3.54462106914475,2.02946246081472,0.354045387522339,3.52115485161597,0.742593519921691,1.01912680017721,2.78306685946093,2.49594150394944,3.26502986776877,0.698153839399179,2.30404787394407,3.03985782910132,0.00996290110515566,1.22424064279731,1.20212979074667,0.509938371232682,0.489474179264844,2.81497051027369,1.27648046206519,2.09848497253772,1.8580439293096,1.00072874566574,3.01479072673935,1.29539186456026,1.83024952832155,2.95068828992112,3.39765575779493,2.61136529287853
0.650395441544426,0.00898111872793227,3.075186045596,3.57788048776699,3.33426025907242,3.46398009800537,0.409260212448081,3.32598647071327,1.90378400176008,3.2158907039165,1.98819789383011,2.46553414858204,3.16931769492539,2.7171749248715,0.332948202608595,0.775596418779155,2.37639064191673,2.32945178296857,2.26243562393935,1.79681931668744,1.8184416647155,1.58132949936266,1.22214408406156,0.0522591144089862,1.3364246786276,3.39609432993275,3.0503587561894,2.16749653581879,1.28360343691129,3.52001813311131
3.45655547355141,0.726008824783381,3.27027820482397,2.61892028274896,0.786642496467867,2.33117750116213,1.22932916042829,2.28928405674607,0.142938571303589,1.30169463497665,0.71046220153126,2.40329396277819,2.6139657096071,1.97286596296954,0.0917795448060052,3.44373943966056,2.68913101138972,3.02775805733528,2.81576289349038,2.89863789831225,0.881160657145623,1.52751275241725,3.22589766365751,2.7421781202509,3.41435551467089,2.38318879957459,3.38344776471306,1.60200252812449,1.034867883583,1.91023450992547
0.0678894158768884,1.65820458701728,2.35490415448086,0.205503845869332,0.903819115694528,2.83066328206596,0.597980147133572,2.38807609788518,2.47550692356914,2.34997537413145,1.26191101784907,0.458395555828882,1.0201356125158,1.39384545953658,1.4823520589072,0.945411934771301,2.34689476990462,2.71349928933824,0.244070395568419,0.382876930005325,0.295955626804361,1.81496246746507,0.890407078196484,0.789005244331902,1.46270528019532,0.578028873995891,0.000160412862971617,1.60427804887494,1.8877736564203,3.56318247186168
3.36003881737592,0.262622514489397,2.96359230362046,0.738914521568881,3.00680664042328,2.16411682337714,2.88263594828669,1.81655061012905,1.03912191234488,2.68030210634708,1.26774880386319,0.975644353113903,2.99619338577436,0.465466693632988,2.0281707827133,0.247217788476133,0.581012196178088,2.3119745693691,0.7345810323649,0.141758972658664,2.15846498653221,1.85633519452826,0.629698485801787,2.0867190570043,1.58117766286301,3.37468312372206,2.60719329612665,2.63040130242258,0.391509859446208,1.53340347014992
1.89956948193701,2.13736053283203,0.00586686451261251,1.35030005935128,1.56598741801734,3.13012643862987,0.811285306891094,3.16429111788249,1.87436843005678,1.65883826392649,1.08933787247601,0.967988834049547,2.12501112954924,3.14938169696805,1.05432552129697,2.13729155479804,2.95196214139087,0.225801420689468,1.68611339595454,1.20375376269396,0.896416559115246,1.75621100745919,1.8094441392503,0.123444069979453,2.27613524956449,1.3549667627341,3.51524750083464,2.29819750166414,0.821759190606772,2.58210125760273
0.458160133314394,1.74358360327016,0.750457641086754,0.80179415941322,0.329129783031125,2.95816147912208,2.16226996321337,3.45306020819259,2.58705726069727,2.47915606558284,2.78904434162613,0.0644505791666222,1.32767261384412,2.84524776676914,1.65602609685437,3.14695777126912,1.76712154977355,0.163996522204949,1.14522632916701,1.54297082589146,2.41913266350475,1.72313230937493,2.22796494822389,2.06321617032551,0.930866494649493,2.16924395308329,2.56960426241607,1.5043341112809,2.54526365145355,1.155675427595
1.12438340425695,2.40103561151821,3.24861638473748,2.95802407290694,0.872685086202195,0.655301610871824,0.731589541179868,0.0849516431265285,2.97398729518707,0.840234145727118,3.04858925093365,1.2371689438993,0.50025625382562,1.26774880553957,2.60604119850604,2.94143867704153,1.71718753842506,0.315429563967245,0.865346750088663,3.43194470882041,0.871797067146654,1.6058808062253,3.44236795075348,1.41560928235557,3.59306530784493,3.58705323356532,1.43515036359204,3.39006296889394,0.996589776965133,0.759373322296596
1.45305960562688,2.6458534549204,2.22491920265598,1.59700675625215,0.723913533391391,2.2573152299306,0.751944776788328,0.22605440664387,2.36080106811635,1.31598858447559,3.1841496653781,1.69603929095717,0.815902759887233,1.03469145625583,2.51425563716993,2.78878416567519,3.30412941095612,1.65409693143056,1.36546806197868,0.739589412296,0.858042902153937,0.80634763166604,3.32435690133104,1.20942938905648,3.43176954716061,1.99690046179895,3.52669049181356,2.6647077716257,3.17288018314768,2.85382633286241
0.750768334768139,3.11301529794606,0.710793534811024,2.80635515097825,3.27898067723912,1.2717996720559,1.13307091665132,0.7871636932656,2.5311400088161,0.900012165913364,3.37063512214023,1.82759403745997,1.16082757225299,3.29597718198596,2.1183795001909,0.0299974098941299,2.28232538061325,0.906139824961377,3.47532304929352,2.98269407254769,1.87021352065271,0.423092077683235,3.08099556280346,1.5908585313665,1.92700303361146,2.78443195632865,1.12147222176263,1.47421956931903,1.71004913417159,0.0053579270864641
2.93867037414511,1.05047800478082,0.593179403707934,2.14232397402745,2.35294059978469,0.320488268845011,2.21985761105076,1.46912056760356,0.509526623650234,2.28046483950711,2.07399618629087,2.2629596504676,0.754093009957156,1.82251145254006,1.62051515151771,2.81035059635078,3.23480420524012,1.35103897105485,0.590093879303939,2.21541332985061,2.62992713313081,1.51466946728279,2.14840818464216,2.95047088849846,1.64537167700258,2.90862300978444,2.67109005612838,2.17194263086279,3.55343281643159,2.58636270099616
0.105304545213145,0.0178210442968742,0.656413366392447,3.25617367124938,2.45926384965855,1.13996935875154,0.403587974050822,0.958649331963924,1.51369764763568,1.10107486206157,2.70919802184645,1.12246145900454,1.77936718174227,3.05267809752965,0.164812624531245,3.30038823732193,1.69627366573376,1.04787501983711,3.53470129125505,1.40382570447578,0.237280408589766,2.05190555139068,2.20418697251202,2.28745985621934,2.65813213002781,1.99660561159095,0.29992009601552,3.02431247151658,1.8520293790158,3.08558322651572
2.34404201765733,3.31828973112548,2.1149112765281,1.73061659118655,0.079410254619741,2.1867725594839,2.39889487512358,0.623358521528243,2.45943650010016,3.27217184774213,1.43184290986128,0.559890613220581,3.04413010023727,2.48917882521133,0.657590364971007,1.40340691609467,0.764135832509089,1.60764605179785,3.34907880171625,1.31516088662444,1.35111616167757,1.46439452705178,1.46369622063995,0.951817361708645,1.10236524934991,0.334525993622153,2.06929037630059,2.70526769045054,3.07826031478041,1.57439803759307
3.06169161231336,3.26409477259223,3.49980612075879,0.499842756101788,2.74174074080854,3.49275068728847,3.57722840922756,0.94651826720057,0.0444787888063485,2.25064762376745,2.59785863878106,2.46818464550571,1.51938653249265,3.32394869091173,1.76144741371341,0.720869165808367,3.05897937596728,0.791624922673975,2.30167994606387,1.45511297241557,0.232784266878285,0.408792562600594,3.48973229522339,0.582411673936253,3.441430530437,0.790689912992851,0.953298262950638,3.16737663725735,2.89188205082523,0.306111196012288
0.66958480135984,3.37073235724621,3.3033598751311,1.96707971057253,2.22723039008082,0.764388245141314,1.34985854763065,2.07871881037891,2.5298529592016,0.985375087235763,0.261355158994605,0.134756504434513,3.5817874370058,2.79183465204753,3.18254897332869,0.299167414521411,2.93278560253456,0.40057792700854,3.24890523350281,0.974776333279338,0.541387196509813,0.423204673464971,2.47481125410405,2.52343024710353,0.784176149956964,1.19319313130956,1.40361230289732,2.39468412883332,0.388899216795759,1.98747595380408
0.555783120242778,1.24475382531283,1.05630138733252,1.07279638772495,0.779906968390526,3.52931581452923,0.815272103815932,2.06953242890049,0.250308953900965,3.24743666036401,1.52415012397065,3.01190826567444,3.07538570085326,2.10908025303347,0.00438955575432142,2.92022932885225,0.0520532179866234,3.1863314026903,2.1103550499819,1.02966034125055,2.9123115350084,2.59290639916105,0.0598397746960818,0.286561509914026,2.82565914170149,3.34576222009294,1.60104778241415,1.33162938008626,2.35908702926668,2.08326585706475
2.34261543617706,2.54639530728869,3.04936093587864,0.438270569424271,1.25692916161238,1.99589123371797,0.619134434600889,0.284367979264058,0.42611488533491,3.1335536094073,2.51077229087743,2.41193489023109,0.658744532921698,0.399373008310503,0.387367449136156,0.0113048723020148,0.381287258482206,2.88050012871646,1.02625007677183,2.56522494934743,0.264598774474393,2.90342257698226,3.49254661141548,1.72097000634343,2.10642846026757,0.710646950411912,2.11780683180215,2.94819529566364,0.623267465561287,3.31665568245419
1.12952201549407,2.30890782545736,3.28783565502979,1.0044685798718,2.34382096675403,0.525254663138303,2.03209743110095,2.1079175824802,2.24530593745658,1.8234050992054,2.45915488156451,2.75482831818742,1.33892261653157,1.9411877769703,3.42249745904584,2.85384171365474,2.50085050133097,1.00142273539744,2.48137840986316,3.4386829593399,0.955537801867136,1.23290572018964,2.85486997703783,2.92966721771735,1.20283191762996,2.14858098428165,2.60703849746242,0.0100811664061999,0.0221854727818563,1.46843697813732
3.19570884797522,1.62594422084556,1.1534170863933,2.90775820021879,0.00118612311835686,2.43910764569375,3.0467333165215,1.34320034931563,2.78974060117721,1.3523728319222,2.91987300576636,3.06770584074208,3.53803222269659,1.18876798264159,0.0859077349705192,1.06539951072326,2.22762600417604,2.35994113849473,2.24658410560646,0.545752573826235,3.19428004864337,1.114011850168,2.78860159441298,1.89111787317838,3.2747171819558,1.51713509295002,0.349292184575131,1.71842242577971,0.866224980757677,0.319175537079189
2.7406802003927,1.85020079475371,3.55493308825182,3.52161695096717,1.10781397424071,3.54004244950602,0.50990608414165,2.84260431902604,3.31197795351594,2.60618662452613,3.22487265077646,1.80821578810374,2.37741194832018,0.4304212087907,0.681965102014116,3.3553819996097,0.656522423334663,3.38474159361084,2.74335789323941,0.227566230403057,0.0777210781712649,1.63146941048627,1.4834121617877,2.05662073067232,3.38894829144187,2.65774109077535,0.824969377380316,0.0125539116619872,3.21660944205551,0.929227133527969
1.22897304353722,3.56438068671356,0.966211369338544,1.15752021742869,2.64220944430782,2.78295642453383,2.65764029168414,3.46097311538689,0.41801518742834,0.779040961889104,0.0422519652369674,3.40712510226626,0.932481003428102,1.5904587263197,0.895772099725796,2.15284537642861,0.478145634791882,3.50023429854784,1.28039139773715,1.58691244366901,2.14557223475798,2.48013170234865,0.609151683472633,2.52337816698634,0.519508228134135,0.273180415049745,2.40870670918781,1.41380842710557,0.51841845499278,0.185110876609157
3.13415561948631,2.30580797302807,2.52030412411331,1.4264595504042,1.57674498389323,0.699709168588607,1.26817953142718,0.528747261375537,0.0279483597855775,0.280705310535014,2.85098537395289,3.3565328516795,2.42036557608301,0.74690351297469,0.957697410954953,2.83375906591944,0.328766653839856,0.824642196495385,0.149232684890382,3.39549466678663,2.92667635517506,1.37124511104601,0.932744176747624,2.69333793553214,1.32616037601892,2.29294462161741,2.3938183821709,3.54086245444643,1.12494628593556,1.12829787709205
2.48044268939665,2.92843704266867,0.875036528555228,3.17537100313947,3.19560094941203,1.03797862242813,1.29583164457969,0.852668742673783,0.871223520334449,1.93057457764194,2.69798997393716,0.897077621378506,2.48639669552743,3.41204932286034,2.45420216082325,0.139146811207359,1.40317037208153,2.10136279170465,2.90880667069406,3.13567610510424,0.793671754930947,2.39286261386837,2.78861849735892,1.73126049904677,2.75309703608653,0.0204634677714032,1.11191464099657,1.63098624070687,1.90614393162827,1.51100697122095
2.28179214069703,0.0189127553342435,2.72550735302526,3.29330973853046,0.79753703772907,1.30493498989611,3.4101441129158,1.25765106308165,3.56557733582592,1.54248179380898,1.67540642324621,1.16990383899301,3.51249174061813,3.19482882525531,1.03553221143574,1.81731087054001,3.06283447307667,0.157110572493221,0.201310264040395,2.93599885876104,1.50315477247497,2.29738151500811,1.62218580396016,1.96898195499973,1.41932399599781,0.156425403876428,0.654854957691792,2.99296318301603,1.68246628906693,3.35015400040436
0.736406330920945,1.19378098100134,2.5119030699655,0.434547602960164,2.93456129195847,2.27645669052212,3.09957255083116,3.38677741204704,1.61974925511505,1.50489556300682,3.59103878829211,0.906871317004259,1.82293464812587,0.0566149615014973,2.67434331582596,3.45883533780409,2.98006287244151,1.72097701026172,1.90816632560835,3.11198002561553,3.28853378877441,2.28568148458641,0.476762595622224,3.5709999712049,0.434297374651906,0.344912115458824,2.58693582536044,0.774447821441315,0.0602431085241228,0.595242337600907
0.53685010920132,2.26849429824785,3.45751409840654,1.45529759053853,0.964121442364585,0.265292791028178,3.23404071779644,0.100876560109144,2.88890456412402,1.40555032966917,2.37573837729904,2.40746231172581,1.44753708646052,0.72254305031269,1.3960644275863,0.475797238422463,2.88396219168043,0.491870624056026,1.95765004267807,1.84546046138064,1.46576735035785,0.605635062700899,0.554211275351332,2.90240482785851,3.45986709141166,3.47291571808649,1.50591772604078,1.38942634416252,2.38532560485663,3.2945750035786
1.8444347645363,3.13299587421724,2.37493982667799,2.45658253415329,3.58430420569345,1.00724440468813,0.958436295836436,1.03610235687164,1.48122339373511,1.30062797409512,1.61998496429063,3.15945212950905,2.68624100996472,1.09078054385762,1.55738895999146,3.31042026733533,1.4489943909687,3.26535001623693,3.10894379518411,2.40862048287346,3.34778485547182,2.12645678991753,0.402308969386997,3.49791005547061,0.657270273499782,0.568768259030193,2.71302707470629,0.91513934196678,2.47652624010878,2.91872370434866
0.177813977272163,2.329836453651,1.89471042058184,0.296340778608034,0.230415532659001,0.224854912713568,2.4152815193009,3.09538484136359,0.0853252647841933,3.18420208412418,3.32154083164481,0.533319287809226,1.47311071226053,2.43096791917038,1.99519681315645,0.553262740631244,2.88194664403887,2.70780277694939,0.285342960565045,3.56002598291264,1.43123976990173,1.37973664448584,1.43077272355127,2.34614208338137,0.95602046537959,3.14732744505039,3.56228273658188,3.03394810791777,0.732673685035051,0.0693145221422028
0.632281491641086,3.25290332755675,1.05305063550037,3.59860640130872,2.90720844292418,2.31946258950954,1.34468974310192,3.12742069155323,1.70089172222693,2.07098860017536,3.4028545812717,0.041568618845925,0.485369861351964,0.000176237896166853,0.219183435393117,1.3491181975925,0.514717033372595,0.306778066934449,2.19690658720066,1.5979062618678,1.28960881237388,1.39080741190855,3.19087120238266,3.4271207709923,2.43264255134046,2.59629388833246,0.35708652974902,3.54285917465708,2.85718307553659,3.31234836490469
